<?xml version="1.0"?>
<opencv_storage>
<cascade>
  <stageType>BOOST</stageType>
  <featureType>LBP</featureType>
  <height>80</height>
  <width>45</width>
  <stageParams>
    <boostType>GAB</boostType>
    <minHitRate>9.9900001287460327e-01</minHitRate>
    <maxFalseAlarm>5.0000000000000000e-01</maxFalseAlarm>
    <weightTrimRate>9.4999999999999996e-01</weightTrimRate>
    <maxDepth>1</maxDepth>
    <maxWeakCount>100</maxWeakCount></stageParams>
  <featureParams>
    <maxCatCount>256</maxCatCount>
    <featSize>1</featSize></featureParams>
  <stageNum>20</stageNum>
  <stages>
    <!-- stage 0 -->
    <_>
      <maxWeakCount>2</maxWeakCount>
      <stageThreshold>-1.9013804197311401e-01</stageThreshold>
      <weakClassifiers>
        <_>
          <internalNodes>
            0 -1 11 -581569705 -787414781 16847223 1896024131 1090617551
            419561473 1611448575 1326441391</internalNodes>
          <leafValues>
            -9.4192379713058472e-01 6.2750715017318726e-01</leafValues></_>
        <_>
          <internalNodes>
            0 -1 27 -606601797 1896976647 38969 806703425 687981258
            562071555 1346601359 -27266389</internalNodes>
          <leafValues>
            -7.9467970132827759e-01 7.5178575515747070e-01</leafValues></_></weakClassifiers></_>
    <!-- stage 1 -->
    <_>
      <maxWeakCount>3</maxWeakCount>
      <stageThreshold>-1.1780138015747070e+00</stageThreshold>
      <weakClassifiers>
        <_>
          <internalNodes>
            0 -1 0 935965689 1930511121 1073807441 1528135953 151027919
            1560281097 142721215 530559931</internalNodes>
          <leafValues>
            -8.9084506034851074e-01 6.2048190832138062e-01</leafValues></_>
        <_>
          <internalNodes>
            0 -1 13 847978497 -787930981 1090797571 -639414191
            1073975465 -360513389 1078689985 -6324725</internalNodes>
          <leafValues>
            -8.1941163539886475e-01 5.6992137432098389e-01</leafValues></_>
        <_>
          <internalNodes>
            0 -1 59 -140795947 1997602833 -2130615399 554930965
            286378155 -1862040829 -1333421134 775633913</internalNodes>
          <leafValues>
            -8.9728635549545288e-01 5.3224295377731323e-01</leafValues></_></weakClassifiers></_>
    <!-- stage 2 -->
    <_>
      <maxWeakCount>4</maxWeakCount>
      <stageThreshold>-6.8345350027084351e-01</stageThreshold>
      <weakClassifiers>
        <_>
          <internalNodes>
            0 -1 2 -602150323 -581860815 361857109 -208337653 1560881503
            1530501537 -299368387 -7486561</internalNodes>
          <leafValues>
            -8.6460345983505249e-01 3.8381201028823853e-01</leafValues></_>
        <_>
          <internalNodes>
            0 -1 25 -531503650 1164252423 268734800 855961611 1074514126
            9472160 -217001745 -36185185</internalNodes>
          <leafValues>
            -7.9951113462448120e-01 5.4486179351806641e-01</leafValues></_>
        <_>
          <internalNodes>
            0 -1 18 1100970996 1288246043 -1727491813 1372799106
            1233985693 262742193 -1719137911 -3410425</internalNodes>
          <leafValues>
            -8.2914036512374878e-01 4.8608985543251038e-01</leafValues></_>
        <_>
          <internalNodes>
            0 -1 45 -21654569 1344164117 -1342107268 -1206381297
            -803144735 -1332397943 -401831476 -1174418630</internalNodes>
          <leafValues>
            -7.5384420156478882e-01 6.2512379884719849e-01</leafValues></_></weakClassifiers></_>
    <!-- stage 3 -->
    <_>
      <maxWeakCount>4</maxWeakCount>
      <stageThreshold>-5.3849440813064575e-01</stageThreshold>
      <weakClassifiers>
        <_>
          <internalNodes>
            0 -1 52 -753667085 -197066347 1410335063 -199819253
            -1710663023 -131530743 -919556405 -1461992021</internalNodes>
          <leafValues>
            -8.0505412817001343e-01 4.2196533083915710e-01</leafValues></_>
        <_>
          <internalNodes>
            0 -1 3 919799587 -921598801 -716089871 -696544126 1090912581
            -258472823 -854209869 -15733813</internalNodes>
          <leafValues>
            -7.6768189668655396e-01 5.7872718572616577e-01</leafValues></_>
        <_>
          <internalNodes>
            0 -1 12 -60819517 1498456164 -1073166881 387049733
            1485469441 1277337840 1908639927 -1476138965</internalNodes>
          <leafValues>
            -8.2534152269363403e-01 5.4638361930847168e-01</leafValues></_>
        <_>
          <internalNodes>
            0 -1 69 -715980286 -754908670 1359085573 1598357507
            -1070923774 -1342144504 318931073 -605033829</internalNodes>
          <leafValues>
            -7.1384543180465698e-01 6.4341777563095093e-01</leafValues></_></weakClassifiers></_>
    <!-- stage 4 -->
    <_>
      <maxWeakCount>4</maxWeakCount>
      <stageThreshold>-9.4076097011566162e-01</stageThreshold>
      <weakClassifiers>
        <_>
          <internalNodes>
            0 -1 28 -581704225 1104003159 408039575 851440031 -191201118
            797872611 2051645855 -6095909</internalNodes>
          <leafValues>
            -7.8308820724487305e-01 3.5393258929252625e-01</leafValues></_>
        <_>
          <internalNodes>
            0 -1 5 -182748202 -107466749 -1006454432 -720306151
            -1340555004 -318619574 1502925272 -800117</internalNodes>
          <leafValues>
            -8.1117194890975952e-01 4.3095722794532776e-01</leafValues></_>
        <_>
          <internalNodes>
            0 -1 46 -712031937 -545188820 -762998467 -1616572327
            -1476294347 -1147371416 1124966421 717762317</internalNodes>
          <leafValues>
            -8.8308179378509521e-01 4.2013397812843323e-01</leafValues></_>
        <_>
          <internalNodes>
            0 -1 8 2102878274 -581891246 -1878982649 -267321271
            -1467916972 -1115643861 -511553148 -87302135</internalNodes>
          <leafValues>
            -8.4256899356842041e-01 4.6089819073677063e-01</leafValues></_></weakClassifiers></_>
    <!-- stage 5 -->
    <_>
      <maxWeakCount>4</maxWeakCount>
      <stageThreshold>-4.8701211810112000e-01</stageThreshold>
      <weakClassifiers>
        <_>
          <internalNodes>
            0 -1 74 -497556993 -329060053 -1802369953 -327969789
            -763332598 -922205549 -660482661 -355733345</internalNodes>
          <leafValues>
            -7.8053098917007446e-01 4.2089551687240601e-01</leafValues></_>
        <_>
          <internalNodes>
            0 -1 20 -69394957 1372046417 1359025877 823938207 536881841
            -1185775191 -1416602955 -1348050853</internalNodes>
          <leafValues>
            -6.9724059104919434e-01 5.2938431501388550e-01</leafValues></_>
        <_>
          <internalNodes>
            0 -1 64 -1059642621 1351057501 294850947 -49102711 106803
            -154130300 537111075 -67659622</internalNodes>
          <leafValues>
            -7.4819236993789673e-01 5.4161679744720459e-01</leafValues></_>
        <_>
          <internalNodes>
            0 -1 24 -207815219 1877566723 -746011319 1853112328
            -569849740 1781497859 1218695375 -1194137123</internalNodes>
          <leafValues>
            -6.8909960985183716e-01 6.2576472759246826e-01</leafValues></_></weakClassifiers></_>
    <!-- stage 6 -->
    <_>
      <maxWeakCount>5</maxWeakCount>
      <stageThreshold>-1.1529372930526733e+00</stageThreshold>
      <weakClassifiers>
        <_>
          <internalNodes>
            0 -1 53 -639765519 1530864170 1359557721 -29284531
            -2097051199 -1194604413 -1121416929 -1999900709</internalNodes>
          <leafValues>
            -7.2425246238708496e-01 4.5637583732604980e-01</leafValues></_>
        <_>
          <internalNodes>
            0 -1 35 -6827524 1834223968 436289583 2063663763 1622248107
            28328944 1074628675 -1165237873</internalNodes>
          <leafValues>
            -8.0273640155792236e-01 4.3503555655479431e-01</leafValues></_>
        <_>
          <internalNodes>
            0 -1 16 290916373 -188743165 419517567 2130821763 285360217
            -1467416536 -509791603 -343214255</internalNodes>
          <leafValues>
            -7.0619839429855347e-01 5.3773969411849976e-01</leafValues></_>
        <_>
          <internalNodes>
            0 -1 38 -247236171 1343025165 -787402469 -645639943
            -1667757839 -590765878 1101072608 -1684130082</internalNodes>
          <leafValues>
            -6.6773813962936401e-01 5.9076070785522461e-01</leafValues></_>
        <_>
          <internalNodes>
            0 -1 79 739660629 -769482622 276874649 -1995304957
            1489078616 -2010574845 1619052691 -477434943</internalNodes>
          <leafValues>
            -7.3372191190719604e-01 5.9354430437088013e-01</leafValues></_></weakClassifiers></_>
    <!-- stage 7 -->
    <_>
      <maxWeakCount>5</maxWeakCount>
      <stageThreshold>-1.1339596509933472e+00</stageThreshold>
      <weakClassifiers>
        <_>
          <internalNodes>
            0 -1 34 -147602721 1433359673 1275186191 -2099314413
            -644314689 -1786060663 -1475754819 -1344343927</internalNodes>
          <leafValues>
            -7.5265020132064819e-01 3.7724551558494568e-01</leafValues></_>
        <_>
          <internalNodes>
            0 -1 7 34805279 -451559341 1426316599 -1780890811 -224255653
            -1742733310 277563731 -74747953</internalNodes>
          <leafValues>
            -7.2258532047271729e-01 4.8917540907859802e-01</leafValues></_>
        <_>
          <internalNodes>
            0 -1 31 2036325820 1728070165 -1742731046 16842792
            -840375307 -937918049 1342922929 -611347797</internalNodes>
          <leafValues>
            -7.3137676715850830e-01 5.2271956205368042e-01</leafValues></_>
        <_>
          <internalNodes>
            0 -1 65 -670646176 -771719039 -1861222384 -176095087
            -1610441784 1073774720 1350598803 -1458896510</internalNodes>
          <leafValues>
            -6.1300939321517944e-01 6.5089148283004761e-01</leafValues></_>
        <_>
          <internalNodes>
            0 -1 50 -649869711 -1270562747 159469589 -170620798
            1644200105 -22654816 -641686806 751835655</internalNodes>
          <leafValues>
            -7.8019499778747559e-01 5.5698072910308838e-01</leafValues></_></weakClassifiers></_>
    <!-- stage 8 -->
    <_>
      <maxWeakCount>4</maxWeakCount>
      <stageThreshold>-6.0519999265670776e-01</stageThreshold>
      <weakClassifiers>
        <_>
          <internalNodes>
            0 -1 39 -803946288 -587137024 285282527 -712916783 58032
            -125828096 76055547 -1651961142</internalNodes>
          <leafValues>
            -6.7948716878890991e-01 4.4927537441253662e-01</leafValues></_>
        <_>
          <internalNodes>
            0 -1 57 -187040101 1703354379 -1741111204 1887489
            -2059365185 629743654 -570381895 999939500</internalNodes>
          <leafValues>
            -8.5567802190780640e-01 3.8305652141571045e-01</leafValues></_>
        <_>
          <internalNodes>
            0 -1 21 -195080110 -171343617 -1853814323 -575993809
            -1064451264 -1448902520 -1566790779 -7733077</internalNodes>
          <leafValues>
            -7.0032078027725220e-01 5.0345212221145630e-01</leafValues></_>
        <_>
          <internalNodes>
            0 -1 19 -362825793 1954677590 1360040813 973082886
            -696202861 1309594287 -805099165 2060404227</internalNodes>
          <leafValues>
            -7.0224952697753906e-01 5.2138197422027588e-01</leafValues></_></weakClassifiers></_>
    <!-- stage 9 -->
    <_>
      <maxWeakCount>4</maxWeakCount>
      <stageThreshold>-7.2000926733016968e-01</stageThreshold>
      <weakClassifiers>
        <_>
          <internalNodes>
            0 -1 43 -639632009 1818418721 17925777 2103155219 -247280101
            152118288 1057661627 -1079252280</internalNodes>
          <leafValues>
            -7.2461271286010742e-01 3.7931033968925476e-01</leafValues></_>
        <_>
          <internalNodes>
            0 -1 36 1100195367 -117156607 1225064959 -62604304
            -1135804771 -1207918324 -1972383537 983507276</internalNodes>
          <leafValues>
            -8.0268877744674683e-01 4.3613761663436890e-01</leafValues></_>
        <_>
          <internalNodes>
            0 -1 4 22742039 -900996718 289472533 -761974293 -738131691
            -251494261 -876383792 -628917773</internalNodes>
          <leafValues>
            -7.6506155729293823e-01 4.8464837670326233e-01</leafValues></_>
        <_>
          <internalNodes>
            0 -1 14 240847657 -1001283542 159796049 -1248743036
            1386373415 -200622062 -118433435 -83371508</internalNodes>
          <leafValues>
            -7.7039569616317749e-01 4.8570004105567932e-01</leafValues></_></weakClassifiers></_>
    <!-- stage 10 -->
    <_>
      <maxWeakCount>4</maxWeakCount>
      <stageThreshold>-1.7425192594528198e+00</stageThreshold>
      <weakClassifiers>
        <_>
          <internalNodes>
            0 -1 48 -788086576 -254935020 -1862201327 -38600631
            -1610448222 -805265408 -1870626135 -1081376613</internalNodes>
          <leafValues>
            -6.3259261846542358e-01 5.6444442272186279e-01</leafValues></_>
        <_>
          <internalNodes>
            0 -1 76 -480262238 -1563369725 -2055202943 182641533
            -1786478421 -1954535424 -314006884 -556875942</internalNodes>
          <leafValues>
            -8.2142901420593262e-01 4.1270625591278076e-01</leafValues></_>
        <_>
          <internalNodes>
            0 -1 23 -405455090 1733024123 -2046291823 -775946224
            -911399593 870662297 -1795128094 -1429663358</internalNodes>
          <leafValues>
            -8.4941166639328003e-01 3.7679946422576904e-01</leafValues></_>
        <_>
          <internalNodes>
            0 -1 42 -1879000751 1426262790 100437 -1807104743
            -1599364060 -25100280 -1996323199 -1944705381</internalNodes>
          <leafValues>
            -6.7322123050689697e-01 5.5080771446228027e-01</leafValues></_></weakClassifiers></_>
    <!-- stage 11 -->
    <_>
      <maxWeakCount>4</maxWeakCount>
      <stageThreshold>-5.0748127698898315e-01</stageThreshold>
      <weakClassifiers>
        <_>
          <internalNodes>
            0 -1 17 -717094913 1364416277 578831315 1485395971
            -1610585700 -1990174592 680265897 -12852341</internalNodes>
          <leafValues>
            -6.5990638732910156e-01 4.7490346431732178e-01</leafValues></_>
        <_>
          <internalNodes>
            0 -1 54 1166233948 320931030 133 -603649791 -1023311744
            -1943601094 -1475701977 -2005607670</internalNodes>
          <leafValues>
            -7.5413739681243896e-01 4.2291107773780823e-01</leafValues></_>
        <_>
          <internalNodes>
            0 -1 1 357763593 -524038008 -2130095933 -129990149 4401154
            -1862122870 -644920825 -195565433</internalNodes>
          <leafValues>
            -8.1143701076507568e-01 4.0477287769317627e-01</leafValues></_>
        <_>
          <internalNodes>
            0 -1 62 -1034366784 -113098620 20496 -1224146928 -2146926464
            -1878982528 848331209 -1568472935</internalNodes>
          <leafValues>
            -5.9385883808135986e-01 6.6181153059005737e-01</leafValues></_></weakClassifiers></_>
    <!-- stage 12 -->
    <_>
      <maxWeakCount>5</maxWeakCount>
      <stageThreshold>-1.0328307151794434e+00</stageThreshold>
      <weakClassifiers>
        <_>
          <internalNodes>
            0 -1 47 -800788280 -251444928 -1056948071 -720039857
            -2145867040 -1207959414 -1073577845 -543481717</internalNodes>
          <leafValues>
            -6.3017749786376953e-01 5.6250000000000000e-01</leafValues></_>
        <_>
          <internalNodes>
            0 -1 10 -245377948 1872217425 -2113893352 -695926615
            -1173360593 1495304200 -2004772181 2140850315</internalNodes>
          <leafValues>
            -8.9823341369628906e-01 3.6482867598533630e-01</leafValues></_>
        <_>
          <internalNodes>
            0 -1 72 -905852848 -247332736 285216914 -257474541
            -1610075984 -1879048080 -2147251798 -268258142</internalNodes>
          <leafValues>
            -6.1241859197616577e-01 5.7350075244903564e-01</leafValues></_>
        <_>
          <internalNodes>
            0 -1 80 681512831 -1442659838 -410955341 -1207009263
            -2126394799 -226262400 -878149419 -1888421761</internalNodes>
          <leafValues>
            -7.4974179267883301e-01 5.0799095630645752e-01</leafValues></_>
        <_>
          <internalNodes>
            0 -1 66 1979129922 -1255474 -201326777 2146728831
            -1623357150 2146402301 -48420930 -44602149</internalNodes>
          <leafValues>
            -5.9266960620880127e-01 6.5739649534225464e-01</leafValues></_></weakClassifiers></_>
    <!-- stage 13 -->
    <_>
      <maxWeakCount>5</maxWeakCount>
      <stageThreshold>-1.2196424007415771e+00</stageThreshold>
      <weakClassifiers>
        <_>
          <internalNodes>
            0 -1 56 -166989696 -511573952 411058384 -243187325
            -218056574 -1205862240 -1862172541 -1710620022</internalNodes>
          <leafValues>
            -6.8948245048522949e-01 3.7541529536247253e-01</leafValues></_>
        <_>
          <internalNodes>
            0 -1 26 2104294872 1331245387 -1844345623 325796201
            1319856597 1004541959 421484936 2146164749</internalNodes>
          <leafValues>
            -7.9787588119506836e-01 3.5850298404693604e-01</leafValues></_>
        <_>
          <internalNodes>
            0 -1 32 620704559 1125646604 1427179609 -112983928 833266725
            -1568374784 -1308608373 -1144436069</internalNodes>
          <leafValues>
            -7.2441965341567993e-01 4.2743173241615295e-01</leafValues></_>
        <_>
          <internalNodes>
            0 -1 70 -805208012 -719749115 402675712 -182697981
            -2130673615 -1845491712 8505987 -1719139438</internalNodes>
          <leafValues>
            -5.6357038021087646e-01 5.9414887428283691e-01</leafValues></_>
        <_>
          <internalNodes>
            0 -1 58 321380883 1879380393 135090581 1021002432 1481122792
            -117702112 -1467429480 1022171569</internalNodes>
          <leafValues>
            -7.5252419710159302e-01 4.9861088395118713e-01</leafValues></_></weakClassifiers></_>
    <!-- stage 14 -->
    <_>
      <maxWeakCount>3</maxWeakCount>
      <stageThreshold>-7.8377830982208252e-01</stageThreshold>
      <weakClassifiers>
        <_>
          <internalNodes>
            0 -1 60 -804261758 -263176192 -2147483623 -675217248
            -1877337951 -527958016 -2138931061 -1244987255</internalNodes>
          <leafValues>
            -6.8336027860641479e-01 4.3772241473197937e-01</leafValues></_>
        <_>
          <internalNodes>
            0 -1 37 -735414670 -1833009686 1845427063 -12751190
            -147224607 -8951811 2004268941 -67283496</internalNodes>
          <leafValues>
            -5.3745985031127930e-01 6.3883048295974731e-01</leafValues></_>
        <_>
          <internalNodes>
            0 -1 29 -920793609 924123250 67145751 -65527611 1141999777
            -852262517 -1064624955 736844639</internalNodes>
          <leafValues>
            -6.8404090404510498e-01 5.3493213653564453e-01</leafValues></_></weakClassifiers></_>
    <!-- stage 15 -->
    <_>
      <maxWeakCount>4</maxWeakCount>
      <stageThreshold>-7.0594924688339233e-01</stageThreshold>
      <weakClassifiers>
        <_>
          <internalNodes>
            0 -1 67 -614770849 1291457883 1476853981 -262678526
            -805196736 558924016 -670506325 -1141123350</internalNodes>
          <leafValues>
            -7.7380955219268799e-01 2.2727273404598236e-01</leafValues></_>
        <_>
          <internalNodes>
            0 -1 68 -249658862 -780140478 -1877966704 -154853113
            -267649022 -1710981120 2273474 -746388949</internalNodes>
          <leafValues>
            -6.7261677980422974e-01 4.4527041912078857e-01</leafValues></_>
        <_>
          <internalNodes>
            0 -1 22 -681443882 -1591541491 -1789425571 -1860419575
            -442474491 276910472 545986745 -10612344</internalNodes>
          <leafValues>
            -7.2599846124649048e-01 4.6346616744995117e-01</leafValues></_>
        <_>
          <internalNodes>
            0 -1 75 -1034687913 1077297923 1359020049 1754349726
            -735461213 -234741744 -1224605293 -133448820</internalNodes>
          <leafValues>
            -6.5249389410018921e-01 5.7412564754486084e-01</leafValues></_></weakClassifiers></_>
    <!-- stage 16 -->
    <_>
      <maxWeakCount>4</maxWeakCount>
      <stageThreshold>-4.6141219139099121e-01</stageThreshold>
      <weakClassifiers>
        <_>
          <internalNodes>
            0 -1 41 -632758168 -234782709 -2013248319 -1320386560
            -1868267382 -1862008320 -1602049893 -1080098102</internalNodes>
          <leafValues>
            -6.4457833766937256e-01 5.4237288236618042e-01</leafValues></_>
        <_>
          <internalNodes>
            0 -1 6 -1383987669 -2109646824 -1860053861 -616525346
            -804632433 -645361531 -582809517 -70515600</internalNodes>
          <leafValues>
            -7.5978696346282959e-01 4.2370301485061646e-01</leafValues></_>
        <_>
          <internalNodes>
            0 -1 51 -510798031 -95301537 -1072946666 -333034999
            -1995126327 -1165980669 -1551015685 338213641</internalNodes>
          <leafValues>
            -8.1438982486724854e-01 4.0809273719787598e-01</leafValues></_>
        <_>
          <internalNodes>
            0 -1 9 -782247205 -267358184 84476499 809988321 -494562588
            -1727397854 -383677054 -1492759552</internalNodes>
          <leafValues>
            -6.1309826374053955e-01 6.3257342576980591e-01</leafValues></_></weakClassifiers></_>
    <!-- stage 17 -->
    <_>
      <maxWeakCount>5</maxWeakCount>
      <stageThreshold>-9.9570876359939575e-01</stageThreshold>
      <weakClassifiers>
        <_>
          <internalNodes>
            0 -1 55 -755045936 -4309085 100628375 -38817815 -268575814
            -1623720073 1946146207 -610559669</internalNodes>
          <leafValues>
            -5.9116023778915405e-01 7.2727274894714355e-01</leafValues></_>
        <_>
          <internalNodes>
            0 -1 33 -1519468326 -284817397 25198934 2067095872
            -2138815221 639270920 1077447296 -61732666</internalNodes>
          <leafValues>
            -6.0240280628204346e-01 5.6785053014755249e-01</leafValues></_>
        <_>
          <internalNodes>
            0 -1 81 604158359 -1593245335 805708037 -1505591165
            -1878622068 33685505 -939229159 -210983992</internalNodes>
          <leafValues>
            -7.1407717466354370e-01 5.5203098058700562e-01</leafValues></_>
        <_>
          <internalNodes>
            0 -1 30 -543954444 1781866645 73760 1342538242 -2115463036
            223051877 1120501762 2107801666</internalNodes>
          <leafValues>
            -8.5800689458847046e-01 4.4754236936569214e-01</leafValues></_>
        <_>
          <internalNodes>
            0 -1 63 269701204 -784793583 134742273 -721223679
            -2146924480 -2013263840 33589430 -1885527989</internalNodes>
          <leafValues>
            -6.6642320156097412e-01 6.3087308406829834e-01</leafValues></_></weakClassifiers></_>
    <!-- stage 18 -->
    <_>
      <maxWeakCount>5</maxWeakCount>
      <stageThreshold>-8.1000077724456787e-01</stageThreshold>
      <weakClassifiers>
        <_>
          <internalNodes>
            0 -1 15 1380053267 -805175280 1114402 1462730757 -905850168
            -106549119 142675997 -72320103</internalNodes>
          <leafValues>
            -7.0540100336074829e-01 4.5328718423843384e-01</leafValues></_>
        <_>
          <internalNodes>
            0 -1 49 -785998632 -469836310 -113444997 936894330
            -1116746258 442314623 -1073935482 -1696398290</internalNodes>
          <leafValues>
            -5.9006839990615845e-01 6.4820301532745361e-01</leafValues></_>
        <_>
          <internalNodes>
            0 -1 71 1792197459 -196562921 1210581521 -367884027 33980603
            -1551755231 -1878837503 -364363002</internalNodes>
          <leafValues>
            -7.2952532768249512e-01 5.6041985750198364e-01</leafValues></_>
        <_>
          <internalNodes>
            0 -1 44 -1861592950 1212596240 -2147084207 -1317961628
            1347895310 117571586 -1029169147 -133545849</internalNodes>
          <leafValues>
            -6.6344738006591797e-01 5.6609129905700684e-01</leafValues></_>
        <_>
          <internalNodes>
            0 -1 77 221519 -989118424 -2063523755 323027219 41287
            -1459519342 -2139041397 -897002754</internalNodes>
          <leafValues>
            -5.0978559255599976e-01 8.2013708353042603e-01</leafValues></_></weakClassifiers></_>
    <!-- stage 19 -->
    <_>
      <maxWeakCount>4</maxWeakCount>
      <stageThreshold>-1.5695793628692627e+00</stageThreshold>
      <weakClassifiers>
        <_>
          <internalNodes>
            0 -1 40 -1878986350 -653688576 16810001 1895825552
            -2113830494 -2012217342 -1904178805 -1215622518</internalNodes>
          <leafValues>
            -6.3880598545074463e-01 5.5652171373367310e-01</leafValues></_>
        <_>
          <internalNodes>
            0 -1 78 -2129143970 -998993152 5257216 -1237297408
            -1065308600 -1476394870 -117400704 -1934054516</internalNodes>
          <leafValues>
            -8.4130668640136719e-01 4.0566477179527283e-01</leafValues></_>
        <_>
          <internalNodes>
            0 -1 61 419492627 1413521617 2162803 -1659633255 -1971231844
            -1962934272 583836089 -1366552704</internalNodes>
          <leafValues>
            -7.2196877002716064e-01 4.8600009083747864e-01</leafValues></_>
        <_>
          <internalNodes>
            0 -1 73 -42528478 -705740993 2013228982 1928740605
            1962898797 1735916127 914349309 -134967565</internalNodes>
          <leafValues>
            -6.1446940898895264e-01 6.2911683320999146e-01</leafValues></_></weakClassifiers></_></stages>
  <features>
    <_>
      <rect>
        0 8 14 18</rect></_>
    <_>
      <rect>
        0 22 3 7</rect></_>
    <_>
      <rect>
        0 37 13 5</rect></_>
    <_>
      <rect>
        1 22 3 7</rect></_>
    <_>
      <rect>
        1 35 2 3</rect></_>
    <_>
      <rect>
        1 35 8 11</rect></_>
    <_>
      <rect>
        2 5 3 10</rect></_>
    <_>
      <rect>
        2 13 3 10</rect></_>
    <_>
      <rect>
        2 37 5 7</rect></_>
    <_>
      <rect>
        2 42 3 8</rect></_>
    <_>
      <rect>
        3 36 14 6</rect></_>
    <_>
      <rect>
        4 22 12 12</rect></_>
    <_>
      <rect>
        4 35 6 6</rect></_>
    <_>
      <rect>
        5 19 1 8</rect></_>
    <_>
      <rect>
        5 20 2 5</rect></_>
    <_>
      <rect>
        5 46 6 9</rect></_>
    <_>
      <rect>
        6 22 2 3</rect></_>
    <_>
      <rect>
        7 11 7 23</rect></_>
    <_>
      <rect>
        7 24 9 17</rect></_>
    <_>
      <rect>
        8 3 8 10</rect></_>
    <_>
      <rect>
        8 21 5 6</rect></_>
    <_>
      <rect>
        8 42 6 6</rect></_>
    <_>
      <rect>
        8 42 7 9</rect></_>
    <_>
      <rect>
        9 34 9 6</rect></_>
    <_>
      <rect>
        10 11 8 19</rect></_>
    <_>
      <rect>
        10 12 11 20</rect></_>
    <_>
      <rect>
        10 15 5 20</rect></_>
    <_>
      <rect>
        11 12 9 18</rect></_>
    <_>
      <rect>
        11 14 10 14</rect></_>
    <_>
      <rect>
        11 17 6 7</rect></_>
    <_>
      <rect>
        11 26 8 15</rect></_>
    <_>
      <rect>
        11 32 8 13</rect></_>
    <_>
      <rect>
        11 35 5 6</rect></_>
    <_>
      <rect>
        12 13 9 20</rect></_>
    <_>
      <rect>
        12 25 11 7</rect></_>
    <_>
      <rect>
        13 19 8 20</rect></_>
    <_>
      <rect>
        13 29 4 5</rect></_>
    <_>
      <rect>
        13 35 2 1</rect></_>
    <_>
      <rect>
        14 17 4 8</rect></_>
    <_>
      <rect>
        14 37 2 1</rect></_>
    <_>
      <rect>
        14 39 1 1</rect></_>
    <_>
      <rect>
        14 40 1 1</rect></_>
    <_>
      <rect>
        15 27 6 5</rect></_>
    <_>
      <rect>
        15 41 7 7</rect></_>
    <_>
      <rect>
        16 11 9 21</rect></_>
    <_>
      <rect>
        16 21 8 7</rect></_>
    <_>
      <rect>
        16 30 4 5</rect></_>
    <_>
      <rect>
        16 35 1 1</rect></_>
    <_>
      <rect>
        16 39 1 1</rect></_>
    <_>
      <rect>
        16 40 1 1</rect></_>
    <_>
      <rect>
        17 24 4 6</rect></_>
    <_>
      <rect>
        17 25 4 6</rect></_>
    <_>
      <rect>
        17 26 6 5</rect></_>
    <_>
      <rect>
        17 27 5 5</rect></_>
    <_>
      <rect>
        17 30 5 3</rect></_>
    <_>
      <rect>
        17 36 1 1</rect></_>
    <_>
      <rect>
        17 43 1 1</rect></_>
    <_>
      <rect>
        18 20 8 10</rect></_>
    <_>
      <rect>
        18 25 5 4</rect></_>
    <_>
      <rect>
        18 28 5 6</rect></_>
    <_>
      <rect>
        18 40 1 1</rect></_>
    <_>
      <rect>
        19 25 3 4</rect></_>
    <_>
      <rect>
        19 35 1 1</rect></_>
    <_>
      <rect>
        19 37 2 1</rect></_>
    <_>
      <rect>
        19 37 3 3</rect></_>
    <_>
      <rect>
        20 35 1 1</rect></_>
    <_>
      <rect>
        20 41 1 1</rect></_>
    <_>
      <rect>
        20 41 5 5</rect></_>
    <_>
      <rect>
        21 43 1 1</rect></_>
    <_>
      <rect>
        23 38 1 2</rect></_>
    <_>
      <rect>
        23 39 2 1</rect></_>
    <_>
      <rect>
        24 18 3 8</rect></_>
    <_>
      <rect>
        25 32 1 1</rect></_>
    <_>
      <rect>
        25 36 1 3</rect></_>
    <_>
      <rect>
        26 22 5 9</rect></_>
    <_>
      <rect>
        27 24 3 7</rect></_>
    <_>
      <rect>
        27 38 3 4</rect></_>
    <_>
      <rect>
        28 3 4 4</rect></_>
    <_>
      <rect>
        30 39 5 10</rect></_>
    <_>
      <rect>
        32 25 3 10</rect></_>
    <_>
      <rect>
        32 36 3 5</rect></_>
    <_>
      <rect>
        38 34 1 4</rect></_></features></cascade>
</opencv_storage>
