<?xml version="1.0"?>
<opencv_storage>
<stage11>
  <maxWeakCount>4</maxWeakCount>
  <stageThreshold>-5.0748127698898315e-01</stageThreshold>
  <weakClassifiers>
    <_>
      <internalNodes>
        0 -1 104500 -717094913 1364416277 578831315 1485395971
        -1610585700 -1990174592 680265897 -12852341</internalNodes>
      <leafValues>
        -6.5990638732910156e-01 4.7490346431732178e-01</leafValues></_>
    <_>
      <internalNodes>
        0 -1 220683 1166233948 320931030 133 -603649791 -1023311744
        -1943601094 -1475701977 -2005607670</internalNodes>
      <leafValues>
        -7.5413739681243896e-01 4.2291107773780823e-01</leafValues></_>
    <_>
      <internalNodes>
        0 -1 7574 357763593 -524038008 -2130095933 -129990149 4401154
        -1862122870 -644920825 -195565433</internalNodes>
      <leafValues>
        -8.1143701076507568e-01 4.0477287769317627e-01</leafValues></_>
    <_>
      <internalNodes>
        0 -1 239550 -1034366784 -113098620 20496 -1224146928 -2146926464
        -1878982528 848331209 -1568472935</internalNodes>
      <leafValues>
        -5.9385883808135986e-01 6.6181153059005737e-01</leafValues></_></weakClassifiers></stage11>
</opencv_storage>
