<?xml version="1.0"?>
<opencv_storage>
<cascade>
  <stageType>BOOST</stageType>
  <featureType>LBP</featureType>
  <height>80</height>
  <width>45</width>
  <stageParams>
    <boostType>GAB</boostType>
    <minHitRate>9.9900001287460327e-01</minHitRate>
    <maxFalseAlarm>5.0000000000000000e-01</maxFalseAlarm>
    <weightTrimRate>9.4999999999999996e-01</weightTrimRate>
    <maxDepth>1</maxDepth>
    <maxWeakCount>100</maxWeakCount></stageParams>
  <featureParams>
    <maxCatCount>256</maxCatCount>
    <featSize>1</featSize></featureParams>
  <stageNum>15</stageNum>
  <stages>
    <!-- stage 0 -->
    <_>
      <maxWeakCount>2</maxWeakCount>
      <stageThreshold>-1.0338895022869110e-01</stageThreshold>
      <weakClassifiers>
        <_>
          <internalNodes>
            0 -1 5 -178261761 -653147869 1358954775 -753860477
            1084459163 1879638021 -393243989 -1105</internalNodes>
          <leafValues>
            -9.8331946134567261e-01 9.6339434385299683e-01</leafValues></_>
        <_>
          <internalNodes>
            0 -1 20 -170402309 823333257 -1761551909 10178599 1770752911
            437847075 -938229505 -1313793</internalNodes>
          <leafValues>
            -1. 8.7993049621582031e-01</leafValues></_></weakClassifiers></_>
    <!-- stage 1 -->
    <_>
      <maxWeakCount>2</maxWeakCount>
      <stageThreshold>-2.0601363480091095e-01</stageThreshold>
      <weakClassifiers>
        <_>
          <internalNodes>
            0 -1 11 -74711073 -142388245 -891501601 -8660581 1854396895
            1006328187 -1178613001 -263457</internalNodes>
          <leafValues>
            -9.7903931140899658e-01 7.9541987180709839e-01</leafValues></_>
        <_>
          <internalNodes>
            0 -1 1 -572525313 -8927785 892695295 -146763 30448341
            -1821203981 -92160769 -4199765</internalNodes>
          <leafValues>
            -9.5566117763519287e-01 7.7302569150924683e-01</leafValues></_></weakClassifiers></_>
    <!-- stage 2 -->
    <_>
      <maxWeakCount>2</maxWeakCount>
      <stageThreshold>-2.7930688858032227e-01</stageThreshold>
      <weakClassifiers>
        <_>
          <internalNodes>
            0 -1 29 -8397313 -33599401 -1793862689 -1139027841
            -457649665 -84238167 -339149057 -1392513077</internalNodes>
          <leafValues>
            -9.7874224185943604e-01 7.5260806083679199e-01</leafValues></_>
        <_>
          <internalNodes>
            0 -1 4 -67373185 -105000547 -779854337 -34999611 1110143871
            -70648870 -50082821 -4461585</internalNodes>
          <leafValues>
            -9.4769513607025146e-01 6.9943535327911377e-01</leafValues></_></weakClassifiers></_>
    <!-- stage 3 -->
    <_>
      <maxWeakCount>3</maxWeakCount>
      <stageThreshold>-1.1835483312606812e+00</stageThreshold>
      <weakClassifiers>
        <_>
          <internalNodes>
            0 -1 21 2001197047 1347745589 1875218807 -34090597
            2113911799 -86915967 -371267105 -67113585</internalNodes>
          <leafValues>
            -9.4579946994781494e-01 6.4502161741256714e-01</leafValues></_>
        <_>
          <internalNodes>
            0 -1 28 -132099 -790834725 1431925247 -134220005 -101795587
            1754827921 -124781829 -1078132737</internalNodes>
          <leafValues>
            -9.2509305477142334e-01 7.0678764581680298e-01</leafValues></_>
        <_>
          <internalNodes>
            0 -1 24 -2049 535820255 303367006 800054236 -578555425
            -8431513 -374355025 -4219921</internalNodes>
          <leafValues>
            -9.0347683429718018e-01 7.4165689945220947e-01</leafValues></_></weakClassifiers></_>
    <!-- stage 4 -->
    <_>
      <maxWeakCount>2</maxWeakCount>
      <stageThreshold>-2.6409673690795898e-01</stageThreshold>
      <weakClassifiers>
        <_>
          <internalNodes>
            0 -1 17 -44041731 -184743969 -1658908289 -135361 -101786129
            -1133147447 -1182549347 -82258</internalNodes>
          <leafValues>
            -9.0043669939041138e-01 6.5801525115966797e-01</leafValues></_>
        <_>
          <internalNodes>
            0 -1 14 -3023019 -250023613 -631907043 -149757029 -845813771
            -577992514 -67118691 -67376209</internalNodes>
          <leafValues>
            -9.2211204767227173e-01 6.5391856431961060e-01</leafValues></_></weakClassifiers></_>
    <!-- stage 5 -->
    <_>
      <maxWeakCount>2</maxWeakCount>
      <stageThreshold>-2.6165542006492615e-01</stageThreshold>
      <weakClassifiers>
        <_>
          <internalNodes>
            0 -1 31 -11012129 872403359 -1085171567 -1560281649
            -71315745 -242257885 -1123587 -70256673</internalNodes>
          <leafValues>
            -9.3122172355651855e-01 6.1726617813110352e-01</leafValues></_>
        <_>
          <internalNodes>
            0 -1 6 -37226505 -712653873 -552548417 -3153165 -475537409
            -121659253 2079817599 -269333</internalNodes>
          <leafValues>
            -8.7892162799835205e-01 6.9728302955627441e-01</leafValues></_></weakClassifiers></_>
    <!-- stage 6 -->
    <_>
      <maxWeakCount>2</maxWeakCount>
      <stageThreshold>-3.5129699110984802e-01</stageThreshold>
      <weakClassifiers>
        <_>
          <internalNodes>
            0 -1 0 368261503 1569960923 1493293471 -536923715 -657724545
            -7817494 -544998017 -2098315</internalNodes>
          <leafValues>
            -9.2744183540344238e-01 5.4758620262145996e-01</leafValues></_>
        <_>
          <internalNodes>
            0 -1 18 1570561529 -2353253 2051756439 -543234345 -335696147
            -67519527 -1165313033 -1129831535</internalNodes>
          <leafValues>
            -8.9888322353363037e-01 6.4201682806015015e-01</leafValues></_></weakClassifiers></_>
    <!-- stage 7 -->
    <_>
      <maxWeakCount>2</maxWeakCount>
      <stageThreshold>-3.3709794282913208e-01</stageThreshold>
      <weakClassifiers>
        <_>
          <internalNodes>
            0 -1 19 333128303 2010892767 -1944943139 -41187328
            1506500701 -269827702 -886535989 -7673703</internalNodes>
          <leafValues>
            -9.0852016210556030e-01 6.0291969776153564e-01</leafValues></_>
        <_>
          <internalNodes>
            0 -1 26 -246293537 -132705467 159383679 -132298887
            -200501797 714050203 -2104718401 -1146291987</internalNodes>
          <leafValues>
            -9.4001764059066772e-01 5.7312226295471191e-01</leafValues></_></weakClassifiers></_>
    <!-- stage 8 -->
    <_>
      <maxWeakCount>3</maxWeakCount>
      <stageThreshold>-1.2845193147659302e+00</stageThreshold>
      <weakClassifiers>
        <_>
          <internalNodes>
            0 -1 16 -539635457 633188369 1224770839 -49724799 -758007350
            2040039845 -1073623890 -70731608</internalNodes>
          <leafValues>
            -9.6521741151809692e-01 5.2156865596771240e-01</leafValues></_>
        <_>
          <internalNodes>
            0 -1 3 903295615 -753311669 -914105105 -100849647 -477681217
            -931102526 -1928513345 -271332538</internalNodes>
          <leafValues>
            -8.7829941511154175e-01 6.3256812095642090e-01</leafValues></_>
        <_>
          <internalNodes>
            0 -1 33 -641271809 -642443942 -647932479 562974883
            1795269287 -842907264 -1064599159 -272434770</internalNodes>
          <leafValues>
            -9.5186996459960938e-01 6.0545396804809570e-01</leafValues></_></weakClassifiers></_>
    <!-- stage 9 -->
    <_>
      <maxWeakCount>2</maxWeakCount>
      <stageThreshold>-3.6408635973930359e-01</stageThreshold>
      <weakClassifiers>
        <_>
          <internalNodes>
            0 -1 22 1402459135 491639835 -1862152047 -12369851
            1435071413 1505951760 -360457533 -72615478</internalNodes>
          <leafValues>
            -9.2483961582183838e-01 5.7686883211135864e-01</leafValues></_>
        <_>
          <internalNodes>
            0 -1 25 -208815311 -10726083 -1052178081 -3173561
            -1580098675 -1450701173 -1702137317 985395099</internalNodes>
          <leafValues>
            -9.4095516204833984e-01 5.6507432460784912e-01</leafValues></_></weakClassifiers></_>
    <!-- stage 10 -->
    <_>
      <maxWeakCount>3</maxWeakCount>
      <stageThreshold>-1.1212067604064941e+00</stageThreshold>
      <weakClassifiers>
        <_>
          <internalNodes>
            0 -1 2 418844931 -799547341 1112364383 -515386965
            -1063509009 -2105003893 -904167171 -2103457</internalNodes>
          <leafValues>
            -8.4563755989074707e-01 6.7105263471603394e-01</leafValues></_>
        <_>
          <internalNodes>
            0 -1 9 -874775553 809009157 4245837 -800849837 -192885769
            -1949914869 -534747481 -137968945</internalNodes>
          <leafValues>
            -8.3668786287307739e-01 7.4634963274002075e-01</leafValues></_>
        <_>
          <internalNodes>
            0 -1 12 8860663 1087438867 1325486229 -40795759 -1300232589
            -1182201717 159391823 -71599349</internalNodes>
          <leafValues>
            -9.5557153224945068e-01 6.1976456642150879e-01</leafValues></_></weakClassifiers></_>
    <!-- stage 11 -->
    <_>
      <maxWeakCount>3</maxWeakCount>
      <stageThreshold>-1.2363203763961792e+00</stageThreshold>
      <weakClassifiers>
        <_>
          <internalNodes>
            0 -1 32 -772590727 -38749416 1075140725 -20030655
            -1056268226 -1429720792 -486303569 -1351636081</internalNodes>
          <leafValues>
            -9.0519601106643677e-01 5.5903273820877075e-01</leafValues></_>
        <_>
          <internalNodes>
            0 -1 15 -1358876225 -145415023 -1072692833 -247390192
            1267425023 2089466248 -1249861509 -5654133</internalNodes>
          <leafValues>
            -9.5011538267135620e-01 6.0403698682785034e-01</leafValues></_>
        <_>
          <internalNodes>
            0 -1 34 727709695 -1917292541 -2134854253 -183046061
            -364427009 -878640439 -494351925 -276892199</internalNodes>
          <leafValues>
            -8.4523779153823853e-01 7.5576061010360718e-01</leafValues></_></weakClassifiers></_>
    <!-- stage 12 -->
    <_>
      <maxWeakCount>3</maxWeakCount>
      <stageThreshold>-1.2304278612136841e+00</stageThreshold>
      <weakClassifiers>
        <_>
          <internalNodes>
            0 -1 23 -611480137 -50076159 469780497 -64391613 -1172336485
            -116784850 -1408455781 -1244740950</internalNodes>
          <leafValues>
            -9.3025445938110352e-01 5.2368062734603882e-01</leafValues></_>
        <_>
          <internalNodes>
            0 -1 8 285938655 -1827552611 1090588703 -610729983
            2022070409 -7730213 -2113300339 193716950</internalNodes>
          <leafValues>
            -9.1677075624465942e-01 6.1047530174255371e-01</leafValues></_>
        <_>
          <internalNodes>
            0 -1 27 -38740003 1415406359 570589187 -16056316 -1073053560
            -240484214 -2139062232 -73164623</internalNodes>
          <leafValues>
            -8.3733773231506348e-01 7.2992444038391113e-01</leafValues></_></weakClassifiers></_>
    <!-- stage 13 -->
    <_>
      <maxWeakCount>2</maxWeakCount>
      <stageThreshold>-4.0999862551689148e-01</stageThreshold>
      <weakClassifiers>
        <_>
          <internalNodes>
            0 -1 13 475124575 -48248385 -2129591147 -1684428399
            -867632984 1942834345 -389088248 -338720568</internalNodes>
          <leafValues>
            -9.5894426107406616e-01 4.9034750461578369e-01</leafValues></_>
        <_>
          <internalNodes>
            0 -1 10 -748167745 -1048379193 134250911 -586612607
            1082671861 -125777255 -1400837726 -304511959</internalNodes>
          <leafValues>
            -9.0034610033035278e-01 6.1997562646865845e-01</leafValues></_></weakClassifiers></_>
    <!-- stage 14 -->
    <_>
      <maxWeakCount>2</maxWeakCount>
      <stageThreshold>-2.8172093629837036e-01</stageThreshold>
      <weakClassifiers>
        <_>
          <internalNodes>
            0 -1 30 -256910857 -799899297 -1927866287 -49596149
            -1002399414 -1377075071 -633248752 -1074822630</internalNodes>
          <leafValues>
            -8.0671578645706177e-01 6.6493952274322510e-01</leafValues></_>
        <_>
          <internalNodes>
            0 -1 7 -868037545 -612286463 1107296273 -15466495 -859060052
            1033407104 -402619240 -301236096</internalNodes>
          <leafValues>
            -9.4666051864624023e-01 5.6913459300994873e-01</leafValues></_></weakClassifiers></_></stages>
  <features>
    <_>
      <rect>
        0 5 3 4</rect></_>
    <_>
      <rect>
        0 9 11 11</rect></_>
    <_>
      <rect>
        0 12 3 9</rect></_>
    <_>
      <rect>
        0 17 2 10</rect></_>
    <_>
      <rect>
        0 34 9 8</rect></_>
    <_>
      <rect>
        1 9 14 16</rect></_>
    <_>
      <rect>
        1 12 7 16</rect></_>
    <_>
      <rect>
        1 13 14 3</rect></_>
    <_>
      <rect>
        1 62 13 6</rect></_>
    <_>
      <rect>
        2 1 7 17</rect></_>
    <_>
      <rect>
        2 46 7 6</rect></_>
    <_>
      <rect>
        3 7 12 21</rect></_>
    <_>
      <rect>
        3 71 10 3</rect></_>
    <_>
      <rect>
        5 11 11 17</rect></_>
    <_>
      <rect>
        5 37 8 12</rect></_>
    <_>
      <rect>
        8 13 7 4</rect></_>
    <_>
      <rect>
        9 12 10 5</rect></_>
    <_>
      <rect>
        10 13 11 9</rect></_>
    <_>
      <rect>
        10 21 7 6</rect></_>
    <_>
      <rect>
        12 35 9 8</rect></_>
    <_>
      <rect>
        13 10 8 18</rect></_>
    <_>
      <rect>
        14 7 6 15</rect></_>
    <_>
      <rect>
        14 11 4 6</rect></_>
    <_>
      <rect>
        14 20 10 8</rect></_>
    <_>
      <rect>
        15 8 8 22</rect></_>
    <_>
      <rect>
        15 19 6 7</rect></_>
    <_>
      <rect>
        15 51 10 9</rect></_>
    <_>
      <rect>
        17 32 9 14</rect></_>
    <_>
      <rect>
        17 45 9 10</rect></_>
    <_>
      <rect>
        18 23 9 6</rect></_>
    <_>
      <rect>
        18 52 5 8</rect></_>
    <_>
      <rect>
        21 1 7 19</rect></_>
    <_>
      <rect>
        21 18 5 7</rect></_>
    <_>
      <rect>
        25 10 6 20</rect></_>
    <_>
      <rect>
        35 3 3 8</rect></_></features></cascade>
</opencv_storage>
