<?xml version="1.0"?>
<opencv_storage>
<cascade>
  <stageType>BOOST</stageType>
  <featureType>LBP</featureType>
  <height>80</height>
  <width>45</width>
  <stageParams>
    <boostType>GAB</boostType>
    <minHitRate>9.9900001287460327e-01</minHitRate>
    <maxFalseAlarm>5.0000000000000000e-01</maxFalseAlarm>
    <weightTrimRate>9.4999999999999996e-01</weightTrimRate>
    <maxDepth>1</maxDepth>
    <maxWeakCount>100</maxWeakCount></stageParams>
  <featureParams>
    <maxCatCount>256</maxCatCount>
    <featSize>1</featSize></featureParams>
  <stageNum>20</stageNum>
  <stages>
    <!-- stage 0 -->
    <_>
      <maxWeakCount>3</maxWeakCount>
      <stageThreshold>-1.0903663635253906e+00</stageThreshold>
      <weakClassifiers>
        <_>
          <internalNodes>
            0 -1 21 -805186854 -752889472 65794 -788462973 269740719
            -939327487 -1610037109 1080292015</internalNodes>
          <leafValues>
            -8.7934184074401855e-01 5.1274788379669189e-01</leafValues></_>
        <_>
          <internalNodes>
            0 -1 13 -607925429 285343747 8388609 1427193984 1610809504
            -1702854656 -1073608447 -169116009</internalNodes>
          <leafValues>
            -7.2558480501174927e-01 6.4870369434356689e-01</leafValues></_>
        <_>
          <internalNodes>
            0 -1 36 -503057442 -964636396 8409104 838930459 -2113818229
            142704770 -804814709 1997136603</internalNodes>
          <leafValues>
            -8.5972821712493896e-01 5.1891124248504639e-01</leafValues></_></weakClassifiers></_>
    <!-- stage 1 -->
    <_>
      <maxWeakCount>4</maxWeakCount>
      <stageThreshold>-5.8296215534210205e-01</stageThreshold>
      <weakClassifiers>
        <_>
          <internalNodes>
            0 -1 4 -107482645 1897123905 69632 1497825344 1879146496
            32768 1073793152 -683163577</internalNodes>
          <leafValues>
            -8.3453238010406494e-01 4.7674417495727539e-01</leafValues></_>
        <_>
          <internalNodes>
            0 -1 73 -217843718 -1073610728 1064986 -728964784
            -1040006743 -1056866304 -805125477 -775458157</internalNodes>
          <leafValues>
            -8.0743002891540527e-01 5.2781563997268677e-01</leafValues></_>
        <_>
          <internalNodes>
            0 -1 46 1992614108 -586022891 16777224 1594820609
            -1072987994 -2012675944 1342755803 468402843</internalNodes>
          <leafValues>
            -7.5826787948608398e-01 5.8691191673278809e-01</leafValues></_>
        <_>
          <internalNodes>
            0 -1 25 -70786357 -968638447 -1073692670 -796696499
            -1073133438 1073774592 1128464533 1404030263</internalNodes>
          <leafValues>
            -8.2925409078598022e-01 5.5101794004440308e-01</leafValues></_></weakClassifiers></_>
    <!-- stage 2 -->
    <_>
      <maxWeakCount>3</maxWeakCount>
      <stageThreshold>-1.1072179079055786e+00</stageThreshold>
      <weakClassifiers>
        <_>
          <internalNodes>
            0 -1 68 -213657601 -330509167 1212224526 -520830974
            -2095983649 -1014726109 -511456613 -1027355685</internalNodes>
          <leafValues>
            -8.0898874998092651e-01 3.6065572500228882e-01</leafValues></_>
        <_>
          <internalNodes>
            0 -1 12 -82903073 -2096999997 -788905045 -1983581474
            -676118267 -1719072469 1154551050 -234888273</internalNodes>
          <leafValues>
            -6.7298942804336548e-01 5.9418553113937378e-01</leafValues></_>
        <_>
          <internalNodes>
            0 -1 1 -1546130201 -406101805 33853781 1943252099 -695862817
            1253622509 -544220261 1088931511</internalNodes>
          <leafValues>
            -7.9488426446914673e-01 5.0493466854095459e-01</leafValues></_></weakClassifiers></_>
    <!-- stage 3 -->
    <_>
      <maxWeakCount>4</maxWeakCount>
      <stageThreshold>-5.2870565652847290e-01</stageThreshold>
      <weakClassifiers>
        <_>
          <internalNodes>
            0 -1 76 -681574657 -1039757292 1344389397 -1371612464
            1119936699 -1876946936 -402071346 -26162945</internalNodes>
          <leafValues>
            -7.9779410362243652e-01 3.7640449404716492e-01</leafValues></_>
        <_>
          <internalNodes>
            0 -1 31 -629222401 -1727606580 2030358802 856162316
            1761724619 4194337 1719798267 -1681952465</internalNodes>
          <leafValues>
            -6.7979776859283447e-01 5.2269446849822998e-01</leafValues></_>
        <_>
          <internalNodes>
            0 -1 9 2069846527 419774536 218173744 1494552834 570515524
            1765818432 1235773360 -1800471884</internalNodes>
          <leafValues>
            -7.6388633251190186e-01 4.9334460496902466e-01</leafValues></_>
        <_>
          <internalNodes>
            0 -1 78 -1814433541 -654257678 -1073704559 -671039030
            688447722 -90603007 1082361924 -1631904356</internalNodes>
          <leafValues>
            -6.6391825675964355e-01 5.7604175806045532e-01</leafValues></_></weakClassifiers></_>
    <!-- stage 4 -->
    <_>
      <maxWeakCount>4</maxWeakCount>
      <stageThreshold>-5.5690437555313110e-01</stageThreshold>
      <weakClassifiers>
        <_>
          <internalNodes>
            0 -1 30 1394939537 294867276 1360101405 -611221463
            -645883750 -99975031 227060362 -661581784</internalNodes>
          <leafValues>
            -6.9230771064758301e-01 4.7826087474822998e-01</leafValues></_>
        <_>
          <internalNodes>
            0 -1 37 985943389 -1825505150 -1342140205 260114816
            407900575 -1155366397 436275930 1020799950</internalNodes>
          <leafValues>
            -8.2309031486511230e-01 3.9636361598968506e-01</leafValues></_>
        <_>
          <internalNodes>
            0 -1 87 -929697281 -1294594030 1342394779 -54509418
            -1332690197 -2124808174 -1052405307 -1945705315</internalNodes>
          <leafValues>
            -6.9625574350357056e-01 5.3260982036590576e-01</leafValues></_>
        <_>
          <internalNodes>
            0 -1 26 -1820409217 -1353513901 17064987 1838252339
            -2002670911 -1986526841 1091600515 710010003</internalNodes>
          <leafValues>
            -7.3527306318283081e-01 5.2059727907180786e-01</leafValues></_></weakClassifiers></_>
    <!-- stage 5 -->
    <_>
      <maxWeakCount>4</maxWeakCount>
      <stageThreshold>-7.7659684419631958e-01</stageThreshold>
      <weakClassifiers>
        <_>
          <internalNodes>
            0 -1 81 -124259333 -2112958070 -2147397503 -2008890922
            -871675696 251822224 -1031485046 -287901477</internalNodes>
          <leafValues>
            -7.5327104330062866e-01 2.8219178318977356e-01</leafValues></_>
        <_>
          <internalNodes>
            0 -1 17 2045220831 1594474886 289472834 937361416 29426350
            253821444 -402312571 1258274894</internalNodes>
          <leafValues>
            -7.5288522243499756e-01 4.1382724046707153e-01</leafValues></_>
        <_>
          <internalNodes>
            0 -1 18 -511738499 -1358757357 -939503593 -744624106
            -2062874268 -389758974 -786158768 -645914508</internalNodes>
          <leafValues>
            -8.4276288747787476e-01 3.7601563334465027e-01</leafValues></_>
        <_>
          <internalNodes>
            0 -1 32 -1878572012 -1122942969 -2130640388 1467547701
            -2147483398 -603455487 -1065317974 -872413526</internalNodes>
          <leafValues>
            -6.2985295057296753e-01 5.5706965923309326e-01</leafValues></_></weakClassifiers></_>
    <!-- stage 6 -->
    <_>
      <maxWeakCount>5</maxWeakCount>
      <stageThreshold>-9.1161203384399414e-01</stageThreshold>
      <weakClassifiers>
        <_>
          <internalNodes>
            0 -1 69 -268381040 -784023408 -788528629 -749797229
            -1199469432 -880537456 1250072795 -202437986</internalNodes>
          <leafValues>
            -6.7515921592712402e-01 4.5588234066963196e-01</leafValues></_>
        <_>
          <internalNodes>
            0 -1 47 -770375980 -725286714 -2130145122 1598391950
            805339361 -1148125176 1208216051 -1154791287</internalNodes>
          <leafValues>
            -6.6951888799667358e-01 5.0181114673614502e-01</leafValues></_>
        <_>
          <internalNodes>
            0 -1 63 -67601160 -672356998 -1233306049 301591908
            -161564964 -1103142972 989226751 -880849437</internalNodes>
          <leafValues>
            -5.4801189899444580e-01 6.2954109907150269e-01</leafValues></_>
        <_>
          <internalNodes>
            0 -1 77 -133498401 -1840381883 -2130639808 -364740478
            -939337717 -91848687 1484889082 -1627949827</internalNodes>
          <leafValues>
            -7.3335617780685425e-01 5.3151047229766846e-01</leafValues></_>
        <_>
          <internalNodes>
            0 -1 0 -303063014 2113648573 1996418942 -948994062
            2013265839 -32778 -147973 -1176178974</internalNodes>
          <leafValues>
            -5.8793747425079346e-01 6.5418559312820435e-01</leafValues></_></weakClassifiers></_>
    <!-- stage 7 -->
    <_>
      <maxWeakCount>4</maxWeakCount>
      <stageThreshold>-6.9097030162811279e-01</stageThreshold>
      <weakClassifiers>
        <_>
          <internalNodes>
            0 -1 20 -240660481 512254807 554172601 -665316351 -770175403
            830818955 655849809 -171607361</internalNodes>
          <leafValues>
            -7.7210217714309692e-01 2.3785166442394257e-01</leafValues></_>
        <_>
          <internalNodes>
            0 -1 75 -212610049 -866500154 -2127478720 -333917558
            673837544 -939506686 -1727278993 -165232541</internalNodes>
          <leafValues>
            -7.5259792804718018e-01 3.8311630487442017e-01</leafValues></_>
        <_>
          <internalNodes>
            0 -1 48 -1084590081 -1387708415 537018925 948278217
            1208238100 -1598005064 411195579 -595660321</internalNodes>
          <leafValues>
            -5.6831532716751099e-01 5.9985452890396118e-01</leafValues></_>
        <_>
          <internalNodes>
            0 -1 39 -98283292 -1039789672 1611182431 -585826263
            -200232744 -79844949 822202817 1003946039</internalNodes>
          <leafValues>
            -7.4362295866012573e-01 4.4945532083511353e-01</leafValues></_></weakClassifiers></_>
    <!-- stage 8 -->
    <_>
      <maxWeakCount>5</maxWeakCount>
      <stageThreshold>-1.2749398946762085e+00</stageThreshold>
      <weakClassifiers>
        <_>
          <internalNodes>
            0 -1 24 -781723649 1268417095 1110442821 -1006315131
            -1330656409 -862089215 -81565609 -616328675</internalNodes>
          <leafValues>
            -7.3556798696517944e-01 2.6170799136161804e-01</leafValues></_>
        <_>
          <internalNodes>
            0 -1 89 -133565729 -997519358 -1743990593 -1668898812
            -1568618261 -117399358 345080055 -829492775</internalNodes>
          <leafValues>
            -6.6623836755752563e-01 4.0723735094070435e-01</leafValues></_>
        <_>
          <internalNodes>
            0 -1 41 -149429009 956301454 -794266382 -119840190
            1208052369 -1744755312 536875163 1068448767</internalNodes>
          <leafValues>
            -6.0321140289306641e-01 5.3098237514495850e-01</leafValues></_>
        <_>
          <internalNodes>
            0 -1 72 349959109 -274579408 -1862024572 -2008788842
            -2147458454 -120983544 1376167166 1953843951</internalNodes>
          <leafValues>
            -7.0700448751449585e-01 4.6430933475494385e-01</leafValues></_>
        <_>
          <internalNodes>
            0 -1 5 1229153519 1426592161 1107298398 1094723843
            -2146956382 807403617 -2105391062 2120178035</internalNodes>
          <leafValues>
            -7.3150742053985596e-01 4.7416856884956360e-01</leafValues></_></weakClassifiers></_>
    <!-- stage 9 -->
    <_>
      <maxWeakCount>4</maxWeakCount>
      <stageThreshold>-5.6850695610046387e-01</stageThreshold>
      <weakClassifiers>
        <_>
          <internalNodes>
            0 -1 16 -587078671 -117006120 134856841 -1722843128
            -931085605 -1595891568 -1566472055 -36712363</internalNodes>
          <leafValues>
            -6.7387688159942627e-01 3.5117056965827942e-01</leafValues></_>
        <_>
          <internalNodes>
            0 -1 34 1108002047 -514782409 -1946053159 1322140546
            -342845389 -867733166 59480611 -142626624</internalNodes>
          <leafValues>
            -6.7481946945190430e-01 4.2838770151138306e-01</leafValues></_>
        <_>
          <internalNodes>
            0 -1 10 -855288833 287629385 -1048526847 327681426
            -514830899 -1732689536 -472500086 735377834</internalNodes>
          <leafValues>
            -6.7756646871566772e-01 4.5124292373657227e-01</leafValues></_>
        <_>
          <internalNodes>
            0 -1 83 -253431325 67174415 1343275171 58889475 -125088920
            578912300 -880752241 -1459698179</internalNodes>
          <leafValues>
            -6.7049872875213623e-01 4.8237904906272888e-01</leafValues></_></weakClassifiers></_>
    <!-- stage 10 -->
    <_>
      <maxWeakCount>7</maxWeakCount>
      <stageThreshold>-1.3560180664062500e+00</stageThreshold>
      <weakClassifiers>
        <_>
          <internalNodes>
            0 -1 40 -572556553 1195491328 -1711259553 2002100232
            -771591648 1623721107 -583373334 -17474</internalNodes>
          <leafValues>
            -6.5472310781478882e-01 3.5664334893226624e-01</leafValues></_>
        <_>
          <internalNodes>
            0 -1 61 -1844783420 1451327878 1377304893 2098136147
            1916901526 -1199292190 -1492412276 1062978287</internalNodes>
          <leafValues>
            -6.9555413722991943e-01 3.8329163193702698e-01</leafValues></_>
        <_>
          <internalNodes>
            0 -1 64 -1789398533 -1039761022 -1878769531 1086918664
            1628251112 -1171879760 403266928 366306818</internalNodes>
          <leafValues>
            -7.9575270414352417e-01 3.6821386218070984e-01</leafValues></_>
        <_>
          <internalNodes>
            0 -1 50 1459668094 -801923053 151065877 2097362949
            -2138535502 -1878376319 956336799 411124376</internalNodes>
          <leafValues>
            -5.4737812280654907e-01 5.7525026798248291e-01</leafValues></_>
        <_>
          <internalNodes>
            0 -1 49 899204737 139342218 -2146926441 -1887076214
            1652801751 -1666669430 944441869 1840980032</internalNodes>
          <leafValues>
            -8.2460331916809082e-01 3.7816771864891052e-01</leafValues></_>
        <_>
          <internalNodes>
            0 -1 60 -787376806 -2029563725 -2146430131 1512546325
            -2142535534 -1147139967 708971930 -1902600126</internalNodes>
          <leafValues>
            -5.3634196519851685e-01 6.3766628503799438e-01</leafValues></_>
        <_>
          <internalNodes>
            0 -1 19 -1056450713 254050693 168248658 994525585 -784168922
            1744830466 -1995807679 -1366608209</internalNodes>
          <leafValues>
            -7.0245051383972168e-01 4.9686118960380554e-01</leafValues></_></weakClassifiers></_>
    <!-- stage 11 -->
    <_>
      <maxWeakCount>4</maxWeakCount>
      <stageThreshold>-8.9565879106521606e-01</stageThreshold>
      <weakClassifiers>
        <_>
          <internalNodes>
            0 -1 86 -211618821 -2143108457 -855521277 -1339637673
            -803741041 -1434312120 -412491549 -1426917123</internalNodes>
          <leafValues>
            -7.6257544755935669e-01 1.9602978229522705e-01</leafValues></_>
        <_>
          <internalNodes>
            0 -1 71 1233908174 -996841200 1159172488 -971105533
            2132394015 -99908990 -1383595868 -994645110</internalNodes>
          <leafValues>
            -7.9351741075515747e-01 3.0310195684432983e-01</leafValues></_>
        <_>
          <internalNodes>
            0 -1 38 -946616610 1280447562 43009055 1427145046 1142637674
            136843418 1489551648 1527479615</internalNodes>
          <leafValues>
            -8.2437372207641602e-01 3.1593382358551025e-01</leafValues></_>
        <_>
          <internalNodes>
            0 -1 62 -1844915189 2124022016 26263676 2065170763
            -1736392519 -1466236920 134236687 -1788147639</internalNodes>
          <leafValues>
            -5.7041680812835693e-01 5.6989628076553345e-01</leafValues></_></weakClassifiers></_>
    <!-- stage 12 -->
    <_>
      <maxWeakCount>4</maxWeakCount>
      <stageThreshold>-6.9911980628967285e-01</stageThreshold>
      <weakClassifiers>
        <_>
          <internalNodes>
            0 -1 3 -1488199171 21289059 1275756757 -717012240 -866926201
            -1433829301 -1073487644 -136615183</internalNodes>
          <leafValues>
            -6.9503545761108398e-01 2.7380952239036560e-01</leafValues></_>
        <_>
          <internalNodes>
            0 -1 23 -1403724802 -1112124352 1171259685 2102019614
            -1025963475 152259171 1879124111 -1088011381</internalNodes>
          <leafValues>
            -6.7548871040344238e-01 4.1814455389976501e-01</leafValues></_>
        <_>
          <internalNodes>
            0 -1 33 1054150936 -1719136235 234946883 -1181284261
            -2130634711 -1157103478 1619372955 806521130</internalNodes>
          <leafValues>
            -6.8757802248001099e-01 4.1790559887886047e-01</leafValues></_>
        <_>
          <internalNodes>
            0 -1 58 836195295 1477640464 16810776 1172109 -1610419200
            155818120 44653442 197870284</internalNodes>
          <leafValues>
            -7.0349591970443726e-01 4.6591380238533020e-01</leafValues></_></weakClassifiers></_>
    <!-- stage 13 -->
    <_>
      <maxWeakCount>5</maxWeakCount>
      <stageThreshold>-1.2188525199890137e+00</stageThreshold>
      <weakClassifiers>
        <_>
          <internalNodes>
            0 -1 55 1561683831 15867986 -1676520940 1333866497 444635338
            1515848074 -887971647 -875583749</internalNodes>
          <leafValues>
            -6.7284989356994629e-01 3.2247558236122131e-01</leafValues></_>
        <_>
          <internalNodes>
            0 -1 88 -547891693 -2147307514 1073792415 -1386548074
            1308731475 -1742569343 1744890967 -1441596498</internalNodes>
          <leafValues>
            -6.3399136066436768e-01 4.1273397207260132e-01</leafValues></_>
        <_>
          <internalNodes>
            0 -1 29 1514980508 -14118703 16941104 331415692 -670549320
            1795162120 -889085544 492317676</internalNodes>
          <leafValues>
            -7.5233036279678345e-01 3.8379231095314026e-01</leafValues></_>
        <_>
          <internalNodes>
            0 -1 56 -1662563912 -55687185 -536903811 1442279343
            -1265313924 -164099 2147286520 -1686407430</internalNodes>
          <leafValues>
            -5.3184247016906738e-01 5.9862768650054932e-01</leafValues></_>
        <_>
          <internalNodes>
            0 -1 79 1099158259 -347029502 66800 -528469694 -1451064165
            -1442283124 1107886833 -566175167</internalNodes>
          <leafValues>
            -7.5363403558731079e-01 4.3532192707061768e-01</leafValues></_></weakClassifiers></_>
    <!-- stage 14 -->
    <_>
      <maxWeakCount>5</maxWeakCount>
      <stageThreshold>-1.0712718963623047e+00</stageThreshold>
      <weakClassifiers>
        <_>
          <internalNodes>
            0 -1 66 -738164583 -783429552 809550229 521486354 -123559287
            -1735884645 -1759329585 -643592010</internalNodes>
          <leafValues>
            -6.2500000000000000e-01 3.8461539149284363e-01</leafValues></_>
        <_>
          <internalNodes>
            0 -1 85 -2057568801 -1576366073 -2121202747 -1203103720
            -1962369013 -1949597694 538350501 -834745938</internalNodes>
          <leafValues>
            -6.5167617797851562e-01 4.3018272519111633e-01</leafValues></_>
        <_>
          <internalNodes>
            0 -1 65 1376043152 -1627384682 1372047641 -1077671669
            -1744665866 -1172745815 -1954432103 870974223</internalNodes>
          <leafValues>
            -7.2434091567993164e-01 4.2730277776718140e-01</leafValues></_>
        <_>
          <internalNodes>
            0 -1 22 1427817932 85248031 -2012741371 318963970
            -1467131385 1246920970 287927217 -551729111</internalNodes>
          <leafValues>
            -6.6131269931793213e-01 5.0608527660369873e-01</leafValues></_>
        <_>
          <internalNodes>
            0 -1 67 457317767 -1322052328 269504655 -1249533177
            -771171693 -92272495 1761904840 -856774097</internalNodes>
          <leafValues>
            -5.7020115852355957e-01 6.0186660289764404e-01</leafValues></_></weakClassifiers></_>
    <!-- stage 15 -->
    <_>
      <maxWeakCount>6</maxWeakCount>
      <stageThreshold>-9.4327038526535034e-01</stageThreshold>
      <weakClassifiers>
        <_>
          <internalNodes>
            0 -1 84 -1822690841 453071376 285327369 -2121674240
            -1056259414 -1069514752 537846413 -1260418372</internalNodes>
          <leafValues>
            -7.2586870193481445e-01 1.9895288348197937e-01</leafValues></_>
        <_>
          <internalNodes>
            0 -1 14 1976505875 285839555 403362138 -211762512
            -1505324494 -921500571 -1521940447 -1211616719</internalNodes>
          <leafValues>
            -7.3963767290115356e-01 3.2649901509284973e-01</leafValues></_>
        <_>
          <internalNodes>
            0 -1 27 1216583518 -1811412651 -1392508867 1159791647
            1182826726 -1558892496 957186879 464879747</internalNodes>
          <leafValues>
            -6.8018037080764771e-01 4.0862897038459778e-01</leafValues></_>
        <_>
          <internalNodes>
            0 -1 15 1367724031 1822429315 273191434 155971 -1702033329
            680616978 -1966907291 -890857234</internalNodes>
          <leafValues>
            -7.2430288791656494e-01 4.5496600866317749e-01</leafValues></_>
        <_>
          <internalNodes>
            0 -1 42 -736171689 1728603397 -536174576 1783242769
            -62300952 -2075361277 -1464749558 -823162976</internalNodes>
          <leafValues>
            -5.7848024368286133e-01 5.8761721849441528e-01</leafValues></_>
        <_>
          <internalNodes>
            0 -1 7 -679120005 -2129510266 -2062872554 -176086905
            -1844936696 327188610 -2084534271 -807911040</internalNodes>
          <leafValues>
            -6.6198664903640747e-01 5.1424121856689453e-01</leafValues></_></weakClassifiers></_>
    <!-- stage 16 -->
    <_>
      <maxWeakCount>5</maxWeakCount>
      <stageThreshold>-1.0744224786758423e+00</stageThreshold>
      <weakClassifiers>
        <_>
          <internalNodes>
            0 -1 52 -630722665 -872148638 139477325 -1382835367
            -1944489357 -989822829 806085827 -20323090</internalNodes>
          <leafValues>
            -6.5886288881301880e-01 3.1125828623771667e-01</leafValues></_>
        <_>
          <internalNodes>
            0 -1 2 1096899781 -852615033 622736 -44612100 545362125
            -108429156 -1458453626 -924983119</internalNodes>
          <leafValues>
            -6.1130708456039429e-01 4.3316295742988586e-01</leafValues></_>
        <_>
          <internalNodes>
            0 -1 45 252703706 1486900242 16785424 1879220618 1490461214
            -1051713511 1275263111 -110142998</internalNodes>
          <leafValues>
            -6.6643482446670532e-01 4.4578579068183899e-01</leafValues></_>
        <_>
          <internalNodes>
            0 -1 59 -715140901 -1131390107 1244778752 1213865996
            545428102 -424931197 -2012575062 983558859</internalNodes>
          <leafValues>
            -6.4081209897994995e-01 4.7603091597557068e-01</leafValues></_>
        <_>
          <internalNodes>
            0 -1 28 1548993489 1023956772 1073777301 -1446768101
            -1052458873 -896890871 -1508882273 1837335248</internalNodes>
          <leafValues>
            -5.7934731245040894e-01 5.7111036777496338e-01</leafValues></_></weakClassifiers></_>
    <!-- stage 17 -->
    <_>
      <maxWeakCount>5</maxWeakCount>
      <stageThreshold>-1.3501359224319458e+00</stageThreshold>
      <weakClassifiers>
        <_>
          <internalNodes>
            0 -1 53 -618178569 -896208879 -1073032911 1095862111
            -464919929 1270223402 -1853857652 -286266377</internalNodes>
          <leafValues>
            -6.2037038803100586e-01 4.0476191043853760e-01</leafValues></_>
        <_>
          <internalNodes>
            0 -1 11 1164511503 -2105311082 67111314 1083770177
            -1069368850 1108482083 369541526 1842066339</internalNodes>
          <leafValues>
            -8.1074124574661255e-01 2.9973542690277100e-01</leafValues></_>
        <_>
          <internalNodes>
            0 -1 51 -530386914 1884508313 -1207824108 2098286867
            -1937013348 -1157103476 167807898 465787039</internalNodes>
          <leafValues>
            -6.3951700925827026e-01 4.6047848463058472e-01</leafValues></_>
        <_>
          <internalNodes>
            0 -1 35 -2113645473 -514289524 1076921045 -2110906275
            -1056747245 -1332215644 -2109534172 733883363</internalNodes>
          <leafValues>
            -7.8016638755798340e-01 4.1946342587471008e-01</leafValues></_>
        <_>
          <internalNodes>
            0 -1 82 1406286605 822624321 33545 -1324854959 1073779429
            403087361 1895866962 639945640</internalNodes>
          <leafValues>
            -8.0944740772247314e-01 3.9846590161323547e-01</leafValues></_></weakClassifiers></_>
    <!-- stage 18 -->
    <_>
      <maxWeakCount>5</maxWeakCount>
      <stageThreshold>-9.9392688274383545e-01</stageThreshold>
      <weakClassifiers>
        <_>
          <internalNodes>
            0 -1 70 -1002413413 -721076223 1547981139 -585612783
            -627293958 -2008903679 1645583035 -1425309460</internalNodes>
          <leafValues>
            -5.9940207004547119e-01 4.3722942471504211e-01</leafValues></_>
        <_>
          <internalNodes>
            0 -1 80 -1818297505 -464612837 1073808026 -938209185
            1762345394 -949911423 1523026816 -1632716068</internalNodes>
          <leafValues>
            -7.0228332281112671e-01 3.6219242215156555e-01</leafValues></_>
        <_>
          <internalNodes>
            0 -1 54 1346521228 2013729940 1363202455 -1380646509
            -1879015036 -1182662462 -880760596 172710798</internalNodes>
          <leafValues>
            -7.3361480236053467e-01 3.7775894999504089e-01</leafValues></_>
        <_>
          <internalNodes>
            0 -1 8 -281084211 2146959358 -4259857 -458754 534736344
            -1905954946 -147618 -1146093649</internalNodes>
          <leafValues>
            -4.2832261323928833e-01 7.2839921712875366e-01</leafValues></_>
        <_>
          <internalNodes>
            0 -1 44 -486440484 16777237 -2097081059 1594442125
            -801092408 -1853683062 -792656949 491204913</internalNodes>
          <leafValues>
            -6.7830938100814819e-01 4.9807038903236389e-01</leafValues></_></weakClassifiers></_>
    <!-- stage 19 -->
    <_>
      <maxWeakCount>4</maxWeakCount>
      <stageThreshold>-5.4782551527023315e-01</stageThreshold>
      <weakClassifiers>
        <_>
          <internalNodes>
            0 -1 43 -883433769 -476347328 811712804 -266665984
            -926895892 -645332822 -263681900 -484968273</internalNodes>
          <leafValues>
            -6.4516127109527588e-01 3.5714286565780640e-01</leafValues></_>
        <_>
          <internalNodes>
            0 -1 74 -133704814 1113478148 16777225 -389254936
            -1056581118 -985623933 -1827896763 -732507213</internalNodes>
          <leafValues>
            -7.8885948657989502e-01 3.2259902358055115e-01</leafValues></_>
        <_>
          <internalNodes>
            0 -1 57 -307350011 -75637661 -16847049 1504935909 -682341668
            -26280585 189562366 -1701136647</internalNodes>
          <leafValues>
            -4.8682758212089539e-01 6.3994938135147095e-01</leafValues></_>
        <_>
          <internalNodes>
            0 -1 6 -712636944 -1189674842 402702346 -1224093629
            -1164305407 453787656 1175357630 -1147908600</internalNodes>
          <leafValues>
            -7.4073982238769531e-01 4.2682459950447083e-01</leafValues></_></weakClassifiers></_></stages>
  <features>
    <_>
      <rect>
        0 0 15 8</rect></_>
    <_>
      <rect>
        0 4 14 16</rect></_>
    <_>
      <rect>
        0 8 6 6</rect></_>
    <_>
      <rect>
        0 13 3 8</rect></_>
    <_>
      <rect>
        0 22 7 11</rect></_>
    <_>
      <rect>
        0 37 8 13</rect></_>
    <_>
      <rect>
        0 55 8 8</rect></_>
    <_>
      <rect>
        1 37 1 2</rect></_>
    <_>
      <rect>
        1 64 14 5</rect></_>
    <_>
      <rect>
        2 26 5 10</rect></_>
    <_>
      <rect>
        2 38 8 13</rect></_>
    <_>
      <rect>
        3 20 10 9</rect></_>
    <_>
      <rect>
        3 27 9 16</rect></_>
    <_>
      <rect>
        3 36 5 11</rect></_>
    <_>
      <rect>
        3 39 2 2</rect></_>
    <_>
      <rect>
        3 41 6 6</rect></_>
    <_>
      <rect>
        4 3 4 11</rect></_>
    <_>
      <rect>
        4 43 13 11</rect></_>
    <_>
      <rect>
        5 32 2 6</rect></_>
    <_>
      <rect>
        5 32 5 8</rect></_>
    <_>
      <rect>
        5 32 5 12</rect></_>
    <_>
      <rect>
        6 5 13 18</rect></_>
    <_>
      <rect>
        6 24 8 14</rect></_>
    <_>
      <rect>
        6 26 9 15</rect></_>
    <_>
      <rect>
        6 39 6 7</rect></_>
    <_>
      <rect>
        7 19 7 11</rect></_>
    <_>
      <rect>
        8 12 8 12</rect></_>
    <_>
      <rect>
        8 25 10 4</rect></_>
    <_>
      <rect>
        8 52 10 9</rect></_>
    <_>
      <rect>
        8 77 1 1</rect></_>
    <_>
      <rect>
        9 0 12 6</rect></_>
    <_>
      <rect>
        9 21 9 17</rect></_>
    <_>
      <rect>
        10 2 11 6</rect></_>
    <_>
      <rect>
        10 6 11 5</rect></_>
    <_>
      <rect>
        10 37 6 6</rect></_>
    <_>
      <rect>
        11 43 6 5</rect></_>
    <_>
      <rect>
        12 25 10 10</rect></_>
    <_>
      <rect>
        12 49 5 9</rect></_>
    <_>
      <rect>
        13 23 6 10</rect></_>
    <_>
      <rect>
        13 29 4 3</rect></_>
    <_>
      <rect>
        13 33 4 9</rect></_>
    <_>
      <rect>
        13 33 5 4</rect></_>
    <_>
      <rect>
        13 33 5 10</rect></_>
    <_>
      <rect>
        13 36 2 4</rect></_>
    <_>
      <rect>
        14 21 4 3</rect></_>
    <_>
      <rect>
        14 29 5 9</rect></_>
    <_>
      <rect>
        14 30 6 3</rect></_>
    <_>
      <rect>
        14 33 4 3</rect></_>
    <_>
      <rect>
        14 35 4 7</rect></_>
    <_>
      <rect>
        14 46 9 11</rect></_>
    <_>
      <rect>
        15 24 7 4</rect></_>
    <_>
      <rect>
        15 29 6 3</rect></_>
    <_>
      <rect>
        15 33 5 9</rect></_>
    <_>
      <rect>
        15 33 6 11</rect></_>
    <_>
      <rect>
        17 29 5 3</rect></_>
    <_>
      <rect>
        17 35 4 7</rect></_>
    <_>
      <rect>
        18 26 4 3</rect></_>
    <_>
      <rect>
        18 30 3 1</rect></_>
    <_>
      <rect>
        18 33 5 4</rect></_>
    <_>
      <rect>
        18 36 5 3</rect></_>
    <_>
      <rect>
        18 38 4 2</rect></_>
    <_>
      <rect>
        19 28 4 4</rect></_>
    <_>
      <rect>
        19 35 3 2</rect></_>
    <_>
      <rect>
        19 36 2 1</rect></_>
    <_>
      <rect>
        19 41 5 4</rect></_>
    <_>
      <rect>
        20 31 3 3</rect></_>
    <_>
      <rect>
        20 34 2 1</rect></_>
    <_>
      <rect>
        22 0 6 4</rect></_>
    <_>
      <rect>
        22 33 7 7</rect></_>
    <_>
      <rect>
        22 39 1 1</rect></_>
    <_>
      <rect>
        23 35 2 1</rect></_>
    <_>
      <rect>
        25 34 4 6</rect></_>
    <_>
      <rect>
        25 45 5 7</rect></_>
    <_>
      <rect>
        26 30 6 6</rect></_>
    <_>
      <rect>
        31 37 2 3</rect></_>
    <_>
      <rect>
        31 39 3 4</rect></_>
    <_>
      <rect>
        32 35 3 7</rect></_>
    <_>
      <rect>
        32 43 3 4</rect></_>
    <_>
      <rect>
        33 44 3 4</rect></_>
    <_>
      <rect>
        34 38 2 2</rect></_>
    <_>
      <rect>
        34 43 2 3</rect></_>
    <_>
      <rect>
        35 25 3 7</rect></_>
    <_>
      <rect>
        36 11 2 9</rect></_>
    <_>
      <rect>
        36 23 2 3</rect></_>
    <_>
      <rect>
        36 23 3 16</rect></_>
    <_>
      <rect>
        36 35 2 4</rect></_>
    <_>
      <rect>
        36 40 2 4</rect></_>
    <_>
      <rect>
        37 41 2 2</rect></_>
    <_>
      <rect>
        38 26 2 3</rect></_>
    <_>
      <rect>
        38 41 2 2</rect></_></features></cascade>
</opencv_storage>
