<?xml version="1.0"?>
<opencv_storage>
<stage14>
  <maxWeakCount>5</maxWeakCount>
  <stageThreshold>-1.0712718963623047e+00</stageThreshold>
  <weakClassifiers>
    <_>
      <internalNodes>
        0 -1 247869 -738164583 -783429552 809550229 521486354 -123559287
        -1735884645 -1759329585 -643592010</internalNodes>
      <leafValues>
        -6.2500000000000000e-01 3.8461539149284363e-01</leafValues></_>
    <_>
      <internalNodes>
        0 -1 337041 -2057568801 -1576366073 -2121202747 -1203103720
        -1962369013 -1949597694 538350501 -834745938</internalNodes>
      <leafValues>
        -6.5167617797851562e-01 4.3018272519111633e-01</leafValues></_>
    <_>
      <internalNodes>
        0 -1 247512 1376043152 -1627384682 1372047641 -1077671669
        -1744665866 -1172745815 -1954432103 870974223</internalNodes>
      <leafValues>
        -7.2434091567993164e-01 4.2730277776718140e-01</leafValues></_>
    <_>
      <internalNodes>
        0 -1 94558 1427817932 85248031 -2012741371 318963970 -1467131385
        1246920970 287927217 -551729111</internalNodes>
      <leafValues>
        -6.6131269931793213e-01 5.0608527660369873e-01</leafValues></_>
    <_>
      <internalNodes>
        0 -1 259171 457317767 -1322052328 269504655 -1249533177
        -771171693 -92272495 1761904840 -856774097</internalNodes>
      <leafValues>
        -5.7020115852355957e-01 6.0186660289764404e-01</leafValues></_></weakClassifiers></stage14>
</opencv_storage>
