<?xml version="1.0"?>
<opencv_storage>
<stage18>
  <maxWeakCount>6</maxWeakCount>
  <stageThreshold>-1.4634262323379517e+00</stageThreshold>
  <weakClassifiers>
    <_>
      <internalNodes>
        0 -1 336776 -1945633969 421904914 536953119 -116817907
        1090573307 -1073053431 -939464465 -318506743</internalNodes>
      <leafValues>
        -6.6556292772293091e-01 3.4459459781646729e-01</leafValues></_>
    <_>
      <internalNodes>
        0 -1 178724 -48761974 1329103700 -2147351541 1687292418
        1418695883 1143581449 1745133866 -1987953</internalNodes>
      <leafValues>
        -6.4358204603195190e-01 4.3050563335418701e-01</leafValues></_>
    <_>
      <internalNodes>
        0 -1 219201 1497300801 520413189 1212666937 -1084170101
        1503477945 -99957630 4278417 2080258185</internalNodes>
      <leafValues>
        -7.4014806747436523e-01 4.0293762087821960e-01</leafValues></_>
    <_>
      <internalNodes>
        0 -1 54393 311949834 -989851176 -938970457 -578776990 1250466996
        -536723264 -1610440545 -1149148645</internalNodes>
      <leafValues>
        -5.6402087211608887e-01 5.4967606067657471e-01</leafValues></_>
    <_>
      <internalNodes>
        0 -1 55720 -8425 -16842753 -285278214 -16777217 -2047519280
        -33751042 570043897 -1075904545</internalNodes>
      <leafValues>
        -5.6826388835906982e-01 6.1136162281036377e-01</leafValues></_>
    <_>
      <internalNodes>
        0 -1 334470 1392964073 -1005543407 -1878945444 1066926358
        940691722 -1583103354 -1624700395 -1566383670</internalNodes>
      <leafValues>
        -6.2211555242538452e-01 5.7506591081619263e-01</leafValues></_></weakClassifiers></stage18>
</opencv_storage>
