<?xml version="1.0"?>
<opencv_storage>
<stage10>
  <maxWeakCount>5</maxWeakCount>
  <stageThreshold>-9.6049511432647705e-01</stageThreshold>
  <weakClassifiers>
    <_>
      <internalNodes>
        0 -1 191449 -116947009 299177183 -1879042887 -78792368
        -927862538 -106819354 -914323325 -91018851</internalNodes>
      <leafValues>
        -6.5378671884536743e-01 4.8616600036621094e-01</leafValues></_>
    <_>
      <internalNodes>
        0 -1 202179 -1211239956 1552278184 1091178654 -189853426
        -2130015329 -2142193424 -1491162997 -1297380925</internalNodes>
      <leafValues>
        -7.2417807579040527e-01 4.3154391646385193e-01</leafValues></_>
    <_>
      <internalNodes>
        0 -1 248094 -169951232 -1782431399 16814749 -179764835
        -1601781120 75497472 -922746741 -1154800402</internalNodes>
      <leafValues>
        -5.5773133039474487e-01 5.9366679191589355e-01</leafValues></_>
    <_>
      <internalNodes>
        0 -1 321987 169837279 -1330474464 268550231 -1113481131
        -1878593365 -259903486 92449170 -1095835537</internalNodes>
      <leafValues>
        -6.5103501081466675e-01 5.7065409421920776e-01</leafValues></_>
    <_>
      <internalNodes>
        0 -1 159403 1369397205 104882439 -1054826466 -139456505
        -794181616 805306379 1159921992 -1141914680</internalNodes>
      <leafValues>
        -6.6511487960815430e-01 5.4765391349792480e-01</leafValues></_></weakClassifiers></stage10>
</opencv_storage>
