<?xml version="1.0"?>
<opencv_storage>
<stage5>
  <maxWeakCount>8</maxWeakCount>
  <stageThreshold>-1.6571247577667236e+00</stageThreshold>
  <weakClassifiers>
    <_>
      <internalNodes>
        0 -1 6286042 1.5432925429195166e-03</internalNodes>
      <leafValues>
        -6.2295079231262207e-01 3.0000001192092896e-01</leafValues></_>
    <_>
      <internalNodes>
        0 -1 8853308 3.1078625470399857e-03</internalNodes>
      <leafValues>
        3.4724581241607666e-01 -5.7624220848083496e-01</leafValues></_>
    <_>
      <internalNodes>
        0 -1 9281959 -5.6763725297059864e-05</internalNodes>
      <leafValues>
        2.3544971644878387e-01 -9.0166163444519043e-01</leafValues></_>
    <_>
      <internalNodes>
        0 -1 5978210 1.4878773072268814e-04</internalNodes>
      <leafValues>
        -6.0472291707992554e-01 3.2930311560630798e-01</leafValues></_>
    <_>
      <internalNodes>
        0 -1 6751447 6.8790949881076813e-03</internalNodes>
      <leafValues>
        -3.0903157591819763e-01 7.2040790319442749e-01</leafValues></_>
    <_>
      <internalNodes>
        0 -1 9268419 -8.6237338837236166e-04</internalNodes>
      <leafValues>
        -8.3394640684127808e-01 2.5864765048027039e-01</leafValues></_>
    <_>
      <internalNodes>
        0 -1 6804740 8.9522852795198560e-04</internalNodes>
      <leafValues>
        -5.0606572628021240e-01 3.7082809209823608e-01</leafValues></_>
    <_>
      <internalNodes>
        0 -1 6046045 1.8340074166189879e-04</internalNodes>
      <leafValues>
        -3.0653494596481323e-01 6.8141448497772217e-01</leafValues></_></weakClassifiers></stage5>
</opencv_storage>
