<?xml version="1.0"?>
<opencv_storage>
<stage13>
  <maxWeakCount>5</maxWeakCount>
  <stageThreshold>-1.2196424007415771e+00</stageThreshold>
  <weakClassifiers>
    <_>
      <internalNodes>
        0 -1 222291 -166989696 -511573952 411058384 -243187325
        -218056574 -1205862240 -1862172541 -1710620022</internalNodes>
      <leafValues>
        -6.8948245048522949e-01 3.7541529536247253e-01</leafValues></_>
    <_>
      <internalNodes>
        0 -1 143059 2104294872 1331245387 -1844345623 325796201
        1319856597 1004541959 421484936 2146164749</internalNodes>
      <leafValues>
        -7.9787588119506836e-01 3.5850298404693604e-01</leafValues></_>
    <_>
      <internalNodes>
        0 -1 158597 620704559 1125646604 1427179609 -112983928 833266725
        -1568374784 -1308608373 -1144436069</internalNodes>
      <leafValues>
        -7.2441965341567993e-01 4.2743173241615295e-01</leafValues></_>
    <_>
      <internalNodes>
        0 -1 271882 -805208012 -719749115 402675712 -182697981
        -2130673615 -1845491712 8505987 -1719139438</internalNodes>
      <leafValues>
        -5.6357038021087646e-01 5.9414887428283691e-01</leafValues></_>
    <_>
      <internalNodes>
        0 -1 229386 321380883 1879380393 135090581 1021002432 1481122792
        -117702112 -1467429480 1022171569</internalNodes>
      <leafValues>
        -7.5252419710159302e-01 4.9861088395118713e-01</leafValues></_></weakClassifiers></stage13>
</opencv_storage>
