<?xml version="1.0"?>
<opencv_storage>
<stage23>
  <maxWeakCount>5</maxWeakCount>
  <stageThreshold>-8.1840240955352783e-01</stageThreshold>
  <weakClassifiers>
    <_>
      <internalNodes>
        0 -1 256742 -9397766 -537600615 1073737727 -216066082 -8388610
        -583020721 -143739905 -40922690</internalNodes>
      <leafValues>
        -5.5792278051376343e-01 7.9865771532058716e-01</leafValues></_>
    <_>
      <internalNodes>
        0 -1 42198 -678360803 -465501917 -754974507 -942669680
        -1986720819 -297613296 537017268 -846175227</internalNodes>
      <leafValues>
        -6.4256793260574341e-01 4.7961676120758057e-01</leafValues></_>
    <_>
      <internalNodes>
        0 -1 168808 -481718759 303170371 318898459 -134150077 1321782415
        1073780747 -1047295839 2055190798</internalNodes>
      <leafValues>
        -6.4229875802993774e-01 5.8632850646972656e-01</leafValues></_>
    <_>
      <internalNodes>
        0 -1 126279 815272377 -1877983224 -805224180 285642968 201326782
        -1979711472 14800794 148410028</internalNodes>
      <leafValues>
        -7.0596593618392944e-01 5.2381438016891479e-01</leafValues></_>
    <_>
      <internalNodes>
        0 -1 174347 -1875981915 1364267589 285212737 -1736081389
        -2004872632 178323601 -1971303795 -1180688159</internalNodes>
      <leafValues>
        -6.2045896053314209e-01 6.0902059078216553e-01</leafValues></_></weakClassifiers></stage23>
</opencv_storage>
