<?xml version="1.0"?>
<opencv_storage>
<stage7>
  <maxWeakCount>5</maxWeakCount>
  <stageThreshold>-1.2184275388717651e+00</stageThreshold>
  <weakClassifiers>
    <_>
      <internalNodes>
        0 -1 323248 -148907337 -2079942894 -536860331 -464744080
        -1816079793 -1565945851 -500487437 -86712257</internalNodes>
      <leafValues>
        -8.0314958095550537e-01 2.7551019191741943e-01</leafValues></_>
    <_>
      <internalNodes>
        0 -1 341640 -567612225 -1438600614 -1862088365 -459644764
        277193102 -74866006 -1831958383 -1139096376</internalNodes>
      <leafValues>
        -7.8735101222991943e-01 3.8797184824943542e-01</leafValues></_>
    <_>
      <internalNodes>
        0 -1 68098 -1994897953 1494520770 -1022339065 -1348280222
        -628994743 -2011332279 1804618190 -135400807</internalNodes>
      <leafValues>
        -6.6227203607559204e-01 5.2405744791030884e-01</leafValues></_>
    <_>
      <internalNodes>
        0 -1 278841 -918499144 -258998144 16777620 -1851719551 167805064
        -2139062272 -2143113063 -1022713846</internalNodes>
      <leafValues>
        -5.3635227680206299e-01 6.7536234855651855e-01</leafValues></_>
    <_>
      <internalNodes>
        0 -1 313729 -1596468237 -1941519603 1409488 -700000494
        1201899464 -1459513176 -526350702 -581502181</internalNodes>
      <leafValues>
        -6.8328529596328735e-01 5.6397962570190430e-01</leafValues></_></weakClassifiers></stage7>
</opencv_storage>
