<?xml version="1.0"?>
<opencv_storage>
<stage6>
  <maxWeakCount>5</maxWeakCount>
  <stageThreshold>-1.1529372930526733e+00</stageThreshold>
  <weakClassifiers>
    <_>
      <internalNodes>
        0 -1 220230 -639765519 1530864170 1359557721 -29284531
        -2097051199 -1194604413 -1121416929 -1999900709</internalNodes>
      <leafValues>
        -7.2425246238708496e-01 4.5637583732604980e-01</leafValues></_>
    <_>
      <internalNodes>
        0 -1 178334 -6827524 1834223968 436289583 2063663763 1622248107
        28328944 1074628675 -1165237873</internalNodes>
      <leafValues>
        -8.0273640155792236e-01 4.3503555655479431e-01</leafValues></_>
    <_>
      <internalNodes>
        0 -1 93946 290916373 -188743165 419517567 2130821763 285360217
        -1467416536 -509791603 -343214255</internalNodes>
      <leafValues>
        -7.0619839429855347e-01 5.3773969411849976e-01</leafValues></_>
    <_>
      <internalNodes>
        0 -1 188365 -247236171 1343025165 -787402469 -645639943
        -1667757839 -590765878 1101072608 -1684130082</internalNodes>
      <leafValues>
        -6.6773813962936401e-01 5.9076070785522461e-01</leafValues></_>
    <_>
      <internalNodes>
        0 -1 322389 739660629 -769482622 276874649 -1995304957
        1489078616 -2010574845 1619052691 -477434943</internalNodes>
      <leafValues>
        -7.3372191190719604e-01 5.9354430437088013e-01</leafValues></_></weakClassifiers></stage6>
</opencv_storage>
