<?xml version="1.0"?>
<opencv_storage>
<stage18>
  <maxWeakCount>10</maxWeakCount>
  <stageThreshold>-1.1516395807266235e+00</stageThreshold>
  <weakClassifiers>
    <_>
      <internalNodes>
        0 -1 3562790 7.3437159880995750e-03</internalNodes>
      <leafValues>
        -4.8456376791000366e-01 4.3030303716659546e-01</leafValues></_>
    <_>
      <internalNodes>
        0 -1 2629727 -6.0323765501379967e-03</internalNodes>
      <leafValues>
        5.3385221958160400e-01 -3.4049475193023682e-01</leafValues></_>
    <_>
      <internalNodes>
        0 -1 6262580 2.0554097369313240e-02</internalNodes>
      <leafValues>
        1.9338670372962952e-01 -7.4016767740249634e-01</leafValues></_>
    <_>
      <internalNodes>
        0 -1 6026398 1.1833726894110441e-03</internalNodes>
      <leafValues>
        -4.3320021033287048e-01 3.5975095629692078e-01</leafValues></_>
    <_>
      <internalNodes>
        0 -1 1089870 9.4678543973714113e-04</internalNodes>
      <leafValues>
        3.9620146155357361e-01 -3.8281399011611938e-01</leafValues></_>
    <_>
      <internalNodes>
        0 -1 3660168 2.9006050899624825e-03</internalNodes>
      <leafValues>
        -7.7656543254852295e-01 1.7932491004467010e-01</leafValues></_>
    <_>
      <internalNodes>
        0 -1 3035623 2.6532743126153946e-02</internalNodes>
      <leafValues>
        1.7188897728919983e-01 -8.1843060255050659e-01</leafValues></_>
    <_>
      <internalNodes>
        0 -1 887990 -3.0828765011392534e-04</internalNodes>
      <leafValues>
        3.4210264682769775e-01 -4.3759599328041077e-01</leafValues></_>
    <_>
      <internalNodes>
        0 -1 9548116 4.5894503273302689e-05</internalNodes>
      <leafValues>
        -2.8992354869842529e-01 5.3412419557571411e-01</leafValues></_>
    <_>
      <internalNodes>
        0 -1 2941002 -6.9458226789720356e-05</internalNodes>
      <leafValues>
        -6.6732960939407349e-01 2.4456073343753815e-01</leafValues></_></weakClassifiers></stage18>
</opencv_storage>
