<?xml version="1.0"?>
<opencv_storage>
<stage17>
  <maxWeakCount>8</maxWeakCount>
  <stageThreshold>-1.1926175355911255e+00</stageThreshold>
  <weakClassifiers>
    <_>
      <internalNodes>
        0 -1 1387176 5.2896915003657341e-03</internalNodes>
      <leafValues>
        -5.6638658046722412e-01 1.4920635521411896e-01</leafValues></_>
    <_>
      <internalNodes>
        0 -1 9298440 4.5640324970008805e-05</internalNodes>
      <leafValues>
        -6.9449126720428467e-01 1.8626345694065094e-01</leafValues></_>
    <_>
      <internalNodes>
        0 -1 6291068 1.1958605609834194e-03</internalNodes>
      <leafValues>
        -4.6767291426658630e-01 2.7792039513587952e-01</leafValues></_>
    <_>
      <internalNodes>
        0 -1 5204984 1.8912039697170258e-02</internalNodes>
      <leafValues>
        1.9863060116767883e-01 -9.3045008182525635e-01</leafValues></_>
    <_>
      <internalNodes>
        0 -1 3935260 2.6652208180166781e-04</internalNodes>
      <leafValues>
        1.9846007227897644e-01 -6.9189530611038208e-01</leafValues></_>
    <_>
      <internalNodes>
        0 -1 2515092 -9.0365458163432777e-05</internalNodes>
      <leafValues>
        -6.4063566923141479e-01 1.9064104557037354e-01</leafValues></_>
    <_>
      <internalNodes>
        0 -1 6049494 3.0775819323025644e-04</internalNodes>
      <leafValues>
        -2.3271021246910095e-01 6.7531347274780273e-01</leafValues></_>
    <_>
      <internalNodes>
        0 -1 4236781 -4.4322438770905137e-04</internalNodes>
      <leafValues>
        -8.6812454462051392e-01 1.8091173470020294e-01</leafValues></_></weakClassifiers></stage17>
</opencv_storage>
