<?xml version="1.0"?>
<opencv_storage>
<stage2>
  <maxWeakCount>6</maxWeakCount>
  <stageThreshold>-1.2127486467361450e+00</stageThreshold>
  <weakClassifiers>
    <_>
      <internalNodes>
        0 -1 5465006 3.5596005618572235e-03</internalNodes>
      <leafValues>
        -6.6770184040069580e-01 5.2631580829620361e-01</leafValues></_>
    <_>
      <internalNodes>
        0 -1 6469522 -2.3932581767439842e-02</internalNodes>
      <leafValues>
        2.8048044443130493e-01 -9.1820627450942993e-01</leafValues></_>
    <_>
      <internalNodes>
        0 -1 3667166 -2.6921057142317295e-03</internalNodes>
      <leafValues>
        2.8759393095970154e-01 -7.8116828203201294e-01</leafValues></_>
    <_>
      <internalNodes>
        0 -1 8860302 4.8935459926724434e-04</internalNodes>
      <leafValues>
        -8.3536171913146973e-01 3.2701200246810913e-01</leafValues></_>
    <_>
      <internalNodes>
        0 -1 5421840 2.3346580564975739e-02</internalNodes>
      <leafValues>
        2.7904155850410461e-01 -7.9284298419952393e-01</leafValues></_>
    <_>
      <internalNodes>
        0 -1 4953460 1.2644764967262745e-02</internalNodes>
      <leafValues>
        -4.1194424033164978e-01 6.4188575744628906e-01</leafValues></_></weakClassifiers></stage2>
</opencv_storage>
