<?xml version="1.0"?>
<opencv_storage>
<stage26>
  <maxWeakCount>5</maxWeakCount>
  <stageThreshold>-8.6093682050704956e-01</stageThreshold>
  <weakClassifiers>
    <_>
      <internalNodes>
        0 -1 147498 -267349521 -1051634921 603984030 1148375043
        -922205949 -1433893886 -1591828477 -361501156</internalNodes>
      <leafValues>
        -7.2260272502899170e-01 3.8607594370841980e-01</leafValues></_>
    <_>
      <internalNodes>
        0 -1 346194 -2147245173 -788463471 1146881 1628422442 437969035
        -1878900735 -1610579829 -1158897452</internalNodes>
      <leafValues>
        -6.7347061634063721e-01 4.8385000228881836e-01</leafValues></_>
    <_>
      <internalNodes>
        0 -1 166318 1392580837 683737109 1073807364 -1794604416
        -1434320358 -369061712 1098982699 2068694049</internalNodes>
      <leafValues>
        -6.0660547018051147e-01 6.2983494997024536e-01</leafValues></_>
    <_>
      <internalNodes>
        0 -1 97723 1397979613 1683312643 352370751 1988346272
        -1979637679 713162880 -1945894784 -704525356</internalNodes>
      <leafValues>
        -6.0918796062469482e-01 6.5296584367752075e-01</leafValues></_>
    <_>
      <internalNodes>
        0 -1 271673 -41105216 -1159963539 -1624539266 -620825612
        -1720045588 -296751747 -1145652488 -841058646</internalNodes>
      <leafValues>
        -5.1506936550140381e-01 8.0018246173858643e-01</leafValues></_></weakClassifiers></stage26>
</opencv_storage>
