<?xml version="1.0"?>
<opencv_storage>
<stage15>
  <maxWeakCount>5</maxWeakCount>
  <stageThreshold>-1.2564475536346436e+00</stageThreshold>
  <weakClassifiers>
    <_>
      <internalNodes>
        0 -1 285747 -796354424 -787410816 1090863125 -145686507
        -1719107442 -1828716512 42549435 -92028469</internalNodes>
      <leafValues>
        -6.5329051017761230e-01 3.8628157973289490e-01</leafValues></_>
    <_>
      <internalNodes>
        0 -1 83173 -107749441 151441434 268767504 -1341194104 -922150058
        1619132551 -595341020 -1330941309</internalNodes>
      <leafValues>
        -8.0664724111557007e-01 3.3395698666572571e-01</leafValues></_>
    <_>
      <internalNodes>
        0 -1 343902 26187263 -1894903503 285323332 -850951793
        -1068261053 -108871656 -2109699696 -50418188</internalNodes>
      <leafValues>
        -6.3769829273223877e-01 4.7413182258605957e-01</leafValues></_>
    <_>
      <internalNodes>
        0 -1 211510 1556702460 -666529679 25691402 2102394901
        -2004840054 -1474653687 1881708682 153731673</internalNodes>
      <leafValues>
        -6.3457006216049194e-01 5.8890628814697266e-01</leafValues></_>
    <_>
      <internalNodes>
        0 -1 188726 -2129341963 -645234423 -2063597551 -1386733423
        843499585 -1530001013 1209217568 -1652010368</internalNodes>
      <leafValues>
        -7.7667576074600220e-01 4.3310675024986267e-01</leafValues></_></weakClassifiers></stage15>
</opencv_storage>
