<?xml version="1.0"?>
<opencv_storage>
<stage12>
  <maxWeakCount>5</maxWeakCount>
  <stageThreshold>-1.1812345981597900e+00</stageThreshold>
  <weakClassifiers>
    <_>
      <internalNodes>
        0 -1 339713 1532088663 -741244730 1360626131 2014399242
        -1878424325 -398276478 -1841194267 -526194278</internalNodes>
      <leafValues>
        -6.7880797386169434e-01 3.7162160873413086e-01</leafValues></_>
    <_>
      <internalNodes>
        0 -1 221111 -737028534 -797966309 -1325399600 1495204237
        276843435 -1207233146 -1300182353 1562078985</internalNodes>
      <leafValues>
        -6.6229945421218872e-01 4.3292221426963806e-01</leafValues></_>
    <_>
      <internalNodes>
        0 -1 178491 -1175014625 -1794062064 -2147467071 1598373894
        1656803482 271057033 1379934369 -1145095681</internalNodes>
      <leafValues>
        -5.8102232217788696e-01 5.3958886861801147e-01</leafValues></_>
    <_>
      <internalNodes>
        0 -1 29900 134271117 1918210435 1367412801 -1768942575
        1481113740 1527316746 -1600287846 1605213199</internalNodes>
      <leafValues>
        -6.4858239889144897e-01 5.2428603172302246e-01</leafValues></_>
    <_>
      <internalNodes>
        0 -1 219657 -247392764 1146934 134287538 1294991418 -2146377591
        285380793 461899933 433688519</internalNodes>
      <leafValues>
        -7.5617361068725586e-01 4.5611453056335449e-01</leafValues></_></weakClassifiers></stage12>
</opencv_storage>
