<?xml version="1.0"?>
<opencv_storage>
<stage7>
  <maxWeakCount>5</maxWeakCount>
  <stageThreshold>-1.3496732711791992e+00</stageThreshold>
  <weakClassifiers>
    <_>
      <internalNodes>
        0 -1 191144 -851355181 2064722456 411314335 496730141 -661020507
        -1114931199 -1878996979 730538505</internalNodes>
      <leafValues>
        -8.2231402397155762e-01 2.3557692766189575e-01</leafValues></_>
    <_>
      <internalNodes>
        0 -1 313468 -1943075233 -1602544490 1082343699 -1593653217
        -767454765 -2013151231 -658259437 -427177893</internalNodes>
      <leafValues>
        -7.6071476936340332e-01 3.9611309766769409e-01</leafValues></_>
    <_>
      <internalNodes>
        0 -1 279480 -691799265 -737615544 -1325147818 -726363110
        -2147385117 1216905216 -2105503605 -100667685</internalNodes>
      <leafValues>
        -6.0937559604644775e-01 5.9909486770629883e-01</leafValues></_>
    <_>
      <internalNodes>
        0 -1 191420 387917346 990878222 -863977211 151093573 1250518425
        -74841694 -922034062 -24219973</internalNodes>
      <leafValues>
        -7.9860568046569824e-01 4.7187688946723938e-01</leafValues></_>
    <_>
      <internalNodes>
        0 -1 60866 -1051995597 1573457926 1342177281 1494323393
        -2135949181 -2012348288 -1052761913 1236006545</internalNodes>
      <leafValues>
        -6.8703675270080566e-01 5.7458752393722534e-01</leafValues></_></weakClassifiers></stage7>
</opencv_storage>
