<?xml version="1.0"?>
<opencv_storage>
<cascade>
  <stageType>BOOST</stageType>
  <featureType>LBP</featureType>
  <height>80</height>
  <width>45</width>
  <stageParams>
    <boostType>GAB</boostType>
    <minHitRate>9.9000000953674316e-01</minHitRate>
    <maxFalseAlarm>5.0000000000000000e-01</maxFalseAlarm>
    <weightTrimRate>9.4999999999999996e-01</weightTrimRate>
    <maxDepth>1</maxDepth>
    <maxWeakCount>100</maxWeakCount></stageParams>
  <featureParams>
    <maxCatCount>256</maxCatCount>
    <featSize>1</featSize></featureParams>
  <stageNum>11</stageNum>
  <stages>
    <!-- stage 0 -->
    <_>
      <maxWeakCount>2</maxWeakCount>
      <stageThreshold>-5.7948213070631027e-02</stageThreshold>
      <weakClassifiers>
        <_>
          <internalNodes>
            0 -1 7 -201590305 1427230993 16859731 -15364069 -1029321989
            -1602190968 -787490117 -2117</internalNodes>
          <leafValues>
            -9.6736073493957520e-01 9.7056120634078979e-01</leafValues></_>
        <_>
          <internalNodes>
            0 -1 5 -683149313 -552353391 -1862237863 -250114021
            -521436997 -74880885 -912209425 2147482571</internalNodes>
          <leafValues>
            -9.9337381124496460e-01 9.0941250324249268e-01</leafValues></_></weakClassifiers></_>
    <!-- stage 1 -->
    <_>
      <maxWeakCount>2</maxWeakCount>
      <stageThreshold>-1.5812997519969940e-01</stageThreshold>
      <weakClassifiers>
        <_>
          <internalNodes>
            0 -1 2 -3147777 -15745073 -577460869 -2057 -377356801
            -2812139 -4194305 -524289</internalNodes>
          <leafValues>
            -9.6875000000000000e-01 8.8908451795578003e-01</leafValues></_>
        <_>
          <internalNodes>
            0 -1 19 -67109889 -229190241 97887479 -97320993 -750273537
            -544218405 -437256193 -1</internalNodes>
          <leafValues>
            -9.9340635538101196e-01 8.1062000989913940e-01</leafValues></_></weakClassifiers></_>
    <!-- stage 2 -->
    <_>
      <maxWeakCount>2</maxWeakCount>
      <stageThreshold>-1.8284578621387482e-01</stageThreshold>
      <weakClassifiers>
        <_>
          <internalNodes>
            0 -1 6 -2140169 -75500065 -872687105 -34857 2077065215
            2143238367 -3425285 -5185</internalNodes>
          <leafValues>
            -9.7613364458084106e-01 8.1818181276321411e-01</leafValues></_>
        <_>
          <internalNodes>
            0 -1 0 -547365057 -6299713 -108789761 -35652609 -220209153
            -340017461 -102244899 -515</internalNodes>
          <leafValues>
            -9.5316296815872192e-01 7.9328787326812744e-01</leafValues></_></weakClassifiers></_>
    <!-- stage 3 -->
    <_>
      <maxWeakCount>2</maxWeakCount>
      <stageThreshold>-2.3724131286144257e-01</stageThreshold>
      <weakClassifiers>
        <_>
          <internalNodes>
            0 -1 12 -3073 -33758737 -16385 -12385 -69276673 2096951230
            -83956769 -2102274</internalNodes>
          <leafValues>
            -9.4927537441253662e-01 7.5165563821792603e-01</leafValues></_>
        <_>
          <internalNodes>
            0 -1 4 -603990529 -606612609 -844692481 -579868385
            -239104513 -16870209 -69730305 -134743177</internalNodes>
          <leafValues>
            -9.3522238731384277e-01 7.1203404664993286e-01</leafValues></_></weakClassifiers></_>
    <!-- stage 4 -->
    <_>
      <maxWeakCount>2</maxWeakCount>
      <stageThreshold>-2.5992691516876221e-01</stageThreshold>
      <weakClassifiers>
        <_>
          <internalNodes>
            0 -1 10 -16993 -64737 -853682481 -26097 -1685337203
            -1444181315 -1684276283 -67109969</internalNodes>
          <leafValues>
            -9.3370163440704346e-01 6.9392710924148560e-01</leafValues></_>
        <_>
          <internalNodes>
            0 -1 17 534771967 1073216255 -1852320257 -1084239565
            -296754497 1069136123 -137778241 -4207685</internalNodes>
          <leafValues>
            -9.4440382719039917e-01 6.7377471923828125e-01</leafValues></_></weakClassifiers></_>
    <!-- stage 5 -->
    <_>
      <maxWeakCount>2</maxWeakCount>
      <stageThreshold>-3.1797951459884644e-01</stageThreshold>
      <weakClassifiers>
        <_>
          <internalNodes>
            0 -1 9 -1611670529 -2105473 -720154017 -552664997 1067776949
            -144497 -1433687301 -839942085</internalNodes>
          <leafValues>
            -8.9505070447921753e-01 7.0513898134231567e-01</leafValues></_>
        <_>
          <internalNodes>
            0 -1 18 -2098305 -3477171 4675487 -1076955681 -339237953
            -72646623 -208929125 -68673</internalNodes>
          <leafValues>
            -9.8433101177215576e-01 5.7707118988037109e-01</leafValues></_></weakClassifiers></_>
    <!-- stage 6 -->
    <_>
      <maxWeakCount>2</maxWeakCount>
      <stageThreshold>-3.7606754899024963e-01</stageThreshold>
      <weakClassifiers>
        <_>
          <internalNodes>
            0 -1 13 -207621121 -385645195 277550347 -1052014445 -9126923
            -68370259 -826496089 -71333105</internalNodes>
          <leafValues>
            -9.4323432445526123e-01 5.6708675622940063e-01</leafValues></_>
        <_>
          <internalNodes>
            0 -1 20 -782764069 771749045 -717138849 752664883
            -1299979058 2041692355 -544483077 -19457</internalNodes>
          <leafValues>
            -9.4315427541732788e-01 5.8895790576934814e-01</leafValues></_></weakClassifiers></_>
    <!-- stage 7 -->
    <_>
      <maxWeakCount>2</maxWeakCount>
      <stageThreshold>-2.6040232181549072e-01</stageThreshold>
      <weakClassifiers>
        <_>
          <internalNodes>
            0 -1 1 134992383 269356301 1141706891 30605743 -947617329
            -2008416128 -205004185 -70022993</internalNodes>
          <leafValues>
            -8.8641977310180664e-01 6.2057876586914062e-01</leafValues></_>
        <_>
          <internalNodes>
            0 -1 15 -1713742337 1033718161 -1795149409 -1122402287
            -620434773 -1383561062 -1207924581 -1081359717</internalNodes>
          <leafValues>
            -8.8098108768463135e-01 6.7317074537277222e-01</leafValues></_></weakClassifiers></_>
    <!-- stage 8 -->
    <_>
      <maxWeakCount>2</maxWeakCount>
      <stageThreshold>-2.9031744599342346e-01</stageThreshold>
      <weakClassifiers>
        <_>
          <internalNodes>
            0 -1 8 336587783 -101776821 1213788339 -1328586653
            -1432479985 -90141830 -1831141277 -605075317</internalNodes>
          <leafValues>
            -9.1211402416229248e-01 7.3898303508758545e-01</leafValues></_>
        <_>
          <internalNodes>
            0 -1 14 1130593151 821837951 -1040137973 -1513635693
            -577683201 -1113029971 -931096497 -72701271</internalNodes>
          <leafValues>
            -9.4386434555053711e-01 6.2179654836654663e-01</leafValues></_></weakClassifiers></_>
    <!-- stage 9 -->
    <_>
      <maxWeakCount>2</maxWeakCount>
      <stageThreshold>-2.3121282458305359e-01</stageThreshold>
      <weakClassifiers>
        <_>
          <internalNodes>
            0 -1 3 -207621121 -753560621 -267269694 -710817586
            -649506581 1482850528 -343156508 -67512592</internalNodes>
          <leafValues>
            -8.9795917272567749e-01 6.9449079036712646e-01</leafValues></_>
        <_>
          <internalNodes>
            0 -1 21 -178528297 -46218879 209459 -738176614 -721169979
            2038661237 -1476143045 -151063633</internalNodes>
          <leafValues>
            -8.6414194107055664e-01 6.6674637794494629e-01</leafValues></_></weakClassifiers></_>
    <!-- stage 10 -->
    <_>
      <maxWeakCount>2</maxWeakCount>
      <stageThreshold>-2.0513151586055756e-01</stageThreshold>
      <weakClassifiers>
        <_>
          <internalNodes>
            0 -1 11 -715154497 -1123078117 -783871585 -815906216
            454857213 -1163289957 -888489823 -1953987707</internalNodes>
          <leafValues>
            -9.1408717632293701e-01 6.1124122142791748e-01</leafValues></_>
        <_>
          <internalNodes>
            0 -1 16 1377040383 2004096945 -1811738251 -3506045
            -1688358183 -5660275 -988706359 -1413498175</internalNodes>
          <leafValues>
            -8.1637275218963623e-01 7.5974696874618530e-01</leafValues></_></weakClassifiers></_></stages>
  <features>
    <_>
      <rect>
        0 0 4 17</rect></_>
    <_>
      <rect>
        0 2 8 23</rect></_>
    <_>
      <rect>
        0 4 13 19</rect></_>
    <_>
      <rect>
        0 41 2 9</rect></_>
    <_>
      <rect>
        1 29 8 9</rect></_>
    <_>
      <rect>
        1 32 14 16</rect></_>
    <_>
      <rect>
        2 59 8 7</rect></_>
    <_>
      <rect>
        3 6 13 17</rect></_>
    <_>
      <rect>
        4 4 12 18</rect></_>
    <_>
      <rect>
        4 17 10 9</rect></_>
    <_>
      <rect>
        5 1 6 16</rect></_>
    <_>
      <rect>
        6 21 8 8</rect></_>
    <_>
      <rect>
        7 12 12 12</rect></_>
    <_>
      <rect>
        10 1 6 22</rect></_>
    <_>
      <rect>
        12 16 11 8</rect></_>
    <_>
      <rect>
        15 65 10 5</rect></_>
    <_>
      <rect>
        16 21 5 7</rect></_>
    <_>
      <rect>
        21 56 7 8</rect></_>
    <_>
      <rect>
        23 2 5 16</rect></_>
    <_>
      <rect>
        24 5 7 14</rect></_>
    <_>
      <rect>
        32 44 4 12</rect></_>
    <_>
      <rect>
        36 35 3 11</rect></_></features></cascade>
</opencv_storage>
