<?xml version="1.0"?>
<opencv_storage>
<stage15>
  <maxWeakCount>6</maxWeakCount>
  <stageThreshold>-9.4327038526535034e-01</stageThreshold>
  <weakClassifiers>
    <_>
      <internalNodes>
        0 -1 336470 -1822690841 453071376 285327369 -2121674240
        -1056259414 -1069514752 537846413 -1260418372</internalNodes>
      <leafValues>
        -7.2586870193481445e-01 1.9895288348197937e-01</leafValues></_>
    <_>
      <internalNodes>
        0 -1 56213 1976505875 285839555 403362138 -211762512 -1505324494
        -921500571 -1521940447 -1211616719</internalNodes>
      <leafValues>
        -7.3963767290115356e-01 3.2649901509284973e-01</leafValues></_>
    <_>
      <internalNodes>
        0 -1 120585 1216583518 -1811412651 -1392508867 1159791647
        1182826726 -1558892496 957186879 464879747</internalNodes>
      <leafValues>
        -6.8018037080764771e-01 4.0862897038459778e-01</leafValues></_>
    <_>
      <internalNodes>
        0 -1 56633 1367724031 1822429315 273191434 155971 -1702033329
        680616978 -1966907291 -890857234</internalNodes>
      <leafValues>
        -7.2430288791656494e-01 4.5496600866317749e-01</leafValues></_>
    <_>
      <internalNodes>
        0 -1 180744 -736171689 1728603397 -536174576 1783242769
        -62300952 -2075361277 -1464749558 -823162976</internalNodes>
      <leafValues>
        -5.7848024368286133e-01 5.8761721849441528e-01</leafValues></_>
    <_>
      <internalNodes>
        0 -1 26324 -679120005 -2129510266 -2062872554 -176086905
        -1844936696 327188610 -2084534271 -807911040</internalNodes>
      <leafValues>
        -6.6198664903640747e-01 5.1424121856689453e-01</leafValues></_></weakClassifiers></stage15>
</opencv_storage>
