<?xml version="1.0"?>
<opencv_storage>
<stage10>
  <maxWeakCount>7</maxWeakCount>
  <stageThreshold>-1.3560180664062500e+00</stageThreshold>
  <weakClassifiers>
    <_>
      <internalNodes>
        0 -1 180728 -572556553 1195491328 -1711259553 2002100232
        -771591648 1623721107 -583373334 -17474</internalNodes>
      <leafValues>
        -6.5472310781478882e-01 3.5664334893226624e-01</leafValues></_>
    <_>
      <internalNodes>
        0 -1 238708 -1844783420 1451327878 1377304893 2098136147
        1916901526 -1199292190 -1492412276 1062978287</internalNodes>
      <leafValues>
        -6.9555413722991943e-01 3.8329163193702698e-01</leafValues></_>
    <_>
      <internalNodes>
        0 -1 240269 -1789398533 -1039761022 -1878769531 1086918664
        1628251112 -1171879760 403266928 366306818</internalNodes>
      <leafValues>
        -7.9575270414352417e-01 3.6821386218070984e-01</leafValues></_>
    <_>
      <internalNodes>
        0 -1 200316 1459668094 -801923053 151065877 2097362949
        -2138535502 -1878376319 956336799 411124376</internalNodes>
      <leafValues>
        -5.4737812280654907e-01 5.7525026798248291e-01</leafValues></_>
    <_>
      <internalNodes>
        0 -1 193033 899204737 139342218 -2146926441 -1887076214
        1652801751 -1666669430 944441869 1840980032</internalNodes>
      <leafValues>
        -8.2460331916809082e-01 3.7816771864891052e-01</leafValues></_>
    <_>
      <internalNodes>
        0 -1 231226 -787376806 -2029563725 -2146430131 1512546325
        -2142535534 -1147139967 708971930 -1902600126</internalNodes>
      <leafValues>
        -5.3634196519851685e-01 6.3766628503799438e-01</leafValues></_>
    <_>
      <internalNodes>
        0 -1 82582 -1056450713 254050693 168248658 994525585 -784168922
        1744830466 -1995807679 -1366608209</internalNodes>
      <leafValues>
        -7.0245051383972168e-01 4.9686118960380554e-01</leafValues></_></weakClassifiers></stage10>
</opencv_storage>
