<?xml version="1.0"?>
<opencv_storage>
<stage8>
  <maxWeakCount>5</maxWeakCount>
  <stageThreshold>-1.2749398946762085e+00</stageThreshold>
  <weakClassifiers>
    <_>
      <internalNodes>
        0 -1 97610 -781723649 1268417095 1110442821 -1006315131
        -1330656409 -862089215 -81565609 -616328675</internalNodes>
      <leafValues>
        -7.3556798696517944e-01 2.6170799136161804e-01</leafValues></_>
    <_>
      <internalNodes>
        0 -1 341745 -133565729 -997519358 -1743990593 -1668898812
        -1568618261 -117399358 345080055 -829492775</internalNodes>
      <leafValues>
        -6.6623836755752563e-01 4.0723735094070435e-01</leafValues></_>
    <_>
      <internalNodes>
        0 -1 180738 -149429009 956301454 -794266382 -119840190
        1208052369 -1744755312 536875163 1068448767</internalNodes>
      <leafValues>
        -6.0321140289306641e-01 5.3098237514495850e-01</leafValues></_>
    <_>
      <internalNodes>
        0 -1 286331 349959109 -274579408 -1862024572 -2008788842
        -2147458454 -120983544 1376167166 1953843951</internalNodes>
      <leafValues>
        -7.0700448751449585e-01 4.6430933475494385e-01</leafValues></_>
    <_>
      <internalNodes>
        0 -1 11390 1229153519 1426592161 1107298398 1094723843
        -2146956382 807403617 -2105391062 2120178035</internalNodes>
      <leafValues>
        -7.3150742053985596e-01 4.7416856884956360e-01</leafValues></_></weakClassifiers></stage8>
</opencv_storage>
