<?xml version="1.0"?>
<opencv_storage>
<cascade>
  <stageType>BOOST</stageType>
  <featureType>LBP</featureType>
  <height>80</height>
  <width>45</width>
  <stageParams>
    <boostType>GAB</boostType>
    <minHitRate>9.9000000953674316e-01</minHitRate>
    <maxFalseAlarm>5.0000000000000000e-01</maxFalseAlarm>
    <weightTrimRate>9.4999999999999996e-01</weightTrimRate>
    <maxDepth>1</maxDepth>
    <maxWeakCount>100</maxWeakCount></stageParams>
  <featureParams>
    <maxCatCount>256</maxCatCount>
    <featSize>1</featSize></featureParams>
  <stageNum>10</stageNum>
  <stages>
    <!-- stage 0 -->
    <_>
      <maxWeakCount>2</maxWeakCount>
      <stageThreshold>-5.3548537194728851e-02</stageThreshold>
      <weakClassifiers>
        <_>
          <internalNodes>
            0 -1 5 -101712897 -749481087 -805295793 -778574957
            -654254645 -662667136 -871707701 -1573889</internalNodes>
          <leafValues>
            -9.7558265924453735e-01 9.6661102771759033e-01</leafValues></_>
        <_>
          <internalNodes>
            0 -1 6 -77594625 -149700201 1359056975 -115879537 -578036757
            -796880768 -905188645 -167773185</internalNodes>
          <leafValues>
            -9.8496961593627930e-01 9.2203414440155029e-01</leafValues></_></weakClassifiers></_>
    <!-- stage 1 -->
    <_>
      <maxWeakCount>2</maxWeakCount>
      <stageThreshold>-1.3475552201271057e-01</stageThreshold>
      <weakClassifiers>
        <_>
          <internalNodes>
            0 -1 13 -1 -1246370 1501811163 -142806017 -1 -3562869
            -10497025 -1</internalNodes>
          <leafValues>
            -9.6347033977508545e-01 8.7179487943649292e-01</leafValues></_>
        <_>
          <internalNodes>
            0 -1 9 -136478721 -9189977 -616311329 -2107937 1670073083
            2107332747 -542113793 -5137</internalNodes>
          <leafValues>
            -9.7814255952835083e-01 8.2871478796005249e-01</leafValues></_></weakClassifiers></_>
    <!-- stage 2 -->
    <_>
      <maxWeakCount>1</maxWeakCount>
      <stageThreshold>7.6600444316864014e-01</stageThreshold>
      <weakClassifiers>
        <_>
          <internalNodes>
            0 -1 8 -9 -3145745 -2084438161 -537933873 -1160904715
            -85220886 -136203 -1</internalNodes>
          <leafValues>
            -1. 7.6600444316864014e-01</leafValues></_></weakClassifiers></_>
    <!-- stage 3 -->
    <_>
      <maxWeakCount>2</maxWeakCount>
      <stageThreshold>-2.2828763723373413e-01</stageThreshold>
      <weakClassifiers>
        <_>
          <internalNodes>
            0 -1 16 -1 585090975 1373623263 -1364264005 -1383862785
            1841025483 -552653825 -2097157</internalNodes>
          <leafValues>
            -9.5823097229003906e-01 6.9970846176147461e-01</leafValues></_>
        <_>
          <internalNodes>
            0 -1 2 -612403233 -111717985 -1182071873 -204213939
            -1444173153 -1879006821 -71832577 -134746249</internalNodes>
          <leafValues>
            -9.1592675447463989e-01 7.2994333505630493e-01</leafValues></_></weakClassifiers></_>
    <!-- stage 4 -->
    <_>
      <maxWeakCount>2</maxWeakCount>
      <stageThreshold>-1.9452099502086639e-01</stageThreshold>
      <weakClassifiers>
        <_>
          <internalNodes>
            0 -1 11 -12895425 903413663 -1316346601 -12856369
            -1143358501 -69357621 -86901765 -3167313</internalNodes>
          <leafValues>
            -8.6495536565780640e-01 7.8642386198043823e-01</leafValues></_>
        <_>
          <internalNodes>
            0 -1 0 2038378783 -639647105 -783599361 -111214545
            -996439045 -611373045 -1248858659 -5891</internalNodes>
          <leafValues>
            -9.8094481229782104e-01 7.0274144411087036e-01</leafValues></_></weakClassifiers></_>
    <!-- stage 5 -->
    <_>
      <maxWeakCount>2</maxWeakCount>
      <stageThreshold>-2.1038621664047241e-01</stageThreshold>
      <weakClassifiers>
        <_>
          <internalNodes>
            0 -1 12 411040735 1037423583 -753804387 -1082264693
            -915543553 -1077370742 -108467249 -263521</internalNodes>
          <leafValues>
            -9.1044777631759644e-01 6.9811320304870605e-01</leafValues></_>
        <_>
          <internalNodes>
            0 -1 14 -10488353 2136821853 1560400159 1054849375
            -611729665 -6666997 -75375621 -19207222</internalNodes>
          <leafValues>
            -8.9579200744628906e-01 7.0006155967712402e-01</leafValues></_></weakClassifiers></_>
    <!-- stage 6 -->
    <_>
      <maxWeakCount>2</maxWeakCount>
      <stageThreshold>-1.3772439956665039e-01</stageThreshold>
      <weakClassifiers>
        <_>
          <internalNodes>
            0 -1 15 1360515551 2009797021 -1793911330 -539894407
            -788049441 -544998899 -876361078 -184550433</internalNodes>
          <leafValues>
            -8.4624344110488892e-01 6.6484802961349487e-01</leafValues></_>
        <_>
          <internalNodes>
            0 -1 7 -1681429153 -1107306645 555815503 -829750711
            -291649601 -4855130 -1953654641 -4207637</internalNodes>
          <leafValues>
            -8.0257242918014526e-01 7.4081856012344360e-01</leafValues></_></weakClassifiers></_>
    <!-- stage 7 -->
    <_>
      <maxWeakCount>2</maxWeakCount>
      <stageThreshold>-2.7092722058296204e-01</stageThreshold>
      <weakClassifiers>
        <_>
          <internalNodes>
            0 -1 17 -33033409 1401135243 318963979 -788305901 -636501173
            402890762 -645662065 -118555650</internalNodes>
          <leafValues>
            -9.3274110555648804e-01 6.1095505952835083e-01</leafValues></_>
        <_>
          <internalNodes>
            0 -1 4 2139348953 -237430049 -251624997 -49571745 1525578493
            -6551318 -1985893637 -609279249</internalNodes>
          <leafValues>
            -8.5951828956604004e-01 6.6181385517120361e-01</leafValues></_></weakClassifiers></_>
    <!-- stage 8 -->
    <_>
      <maxWeakCount>2</maxWeakCount>
      <stageThreshold>-2.5211915373802185e-01</stageThreshold>
      <weakClassifiers>
        <_>
          <internalNodes>
            0 -1 1 -657750577 -993455953 33685835 -1731182581
            -1064598549 -1035451638 -390600489 -270019877</internalNodes>
          <leafValues>
            -8.6094313859939575e-01 6.1218422651290894e-01</leafValues></_>
        <_>
          <internalNodes>
            0 -1 3 -146278401 -784867125 -2129555200 -6831477
            -1031581297 -1966178303 -842940204 -4328459</internalNodes>
          <leafValues>
            -8.6430341005325317e-01 6.6947120428085327e-01</leafValues></_></weakClassifiers></_>
    <!-- stage 9 -->
    <_>
      <maxWeakCount>2</maxWeakCount>
      <stageThreshold>-3.0157390236854553e-01</stageThreshold>
      <weakClassifiers>
        <_>
          <internalNodes>
            0 -1 10 -1011879009 1936752821 1074331799 924717087
            690990077 2075763625 -340141125 -1346852183</internalNodes>
          <leafValues>
            -9.3770706653594971e-01 5.4661303758621216e-01</leafValues></_>
        <_>
          <internalNodes>
            0 -1 18 -247202853 -216415981 -788434085 -1370996333
            -1006534013 1384349697 -716073989 -3478837</internalNodes>
          <leafValues>
            -8.3155685663223267e-01 6.3613319396972656e-01</leafValues></_></weakClassifiers></_></stages>
  <features>
    <_>
      <rect>
        0 0 4 17</rect></_>
    <_>
      <rect>
        0 6 8 20</rect></_>
    <_>
      <rect>
        0 27 8 9</rect></_>
    <_>
      <rect>
        0 41 2 9</rect></_>
    <_>
      <rect>
        0 64 10 5</rect></_>
    <_>
      <rect>
        3 3 12 19</rect></_>
    <_>
      <rect>
        3 3 14 21</rect></_>
    <_>
      <rect>
        4 4 11 21</rect></_>
    <_>
      <rect>
        5 1 6 17</rect></_>
    <_>
      <rect>
        5 56 6 8</rect></_>
    <_>
      <rect>
        9 22 9 7</rect></_>
    <_>
      <rect>
        11 17 10 9</rect></_>
    <_>
      <rect>
        15 62 10 6</rect></_>
    <_>
      <rect>
        17 2 7 19</rect></_>
    <_>
      <rect>
        18 0 7 7</rect></_>
    <_>
      <rect>
        18 29 8 11</rect></_>
    <_>
      <rect>
        32 47 4 11</rect></_>
    <_>
      <rect>
        35 2 3 18</rect></_>
    <_>
      <rect>
        36 46 3 10</rect></_></features></cascade>
</opencv_storage>
